~o
<STREAMINFO> 1 75
<VECSIZE> 75<NULLD><MFCC_E_D_A><DIAGC>
~s "tiedSP"
<NUMMIXES> 16
<MIXTURE> 1 5.761406e-02
<MEAN> 75
 -1.539266e+01 -9.687881e-01 -4.303210e+00 -1.614675e+00 -1.368581e+00 5.092408e+00 5.381055e+00 3.322474e+00 3.989828e-01 4.803098e+00 6.607513e+00 3.528033e+00 1.579057e+00 4.944969e+00 3.735688e+00 2.077329e+00 2.543230e+00 1.744336e+00 1.005831e+00 1.058308e+00 2.456390e-01 4.219732e-02 -1.055034e-01 7.688960e-02 1.880015e+01 2.436282e-01 5.313041e-02 -2.772794e-01 -3.690550e-01 -2.366827e-01 8.885320e-02 3.415103e-01 -6.517103e-02 -2.694482e-01 3.338618e-01 6.457836e-01 3.346230e-02 -1.033546e-01 4.829948e-01 2.428653e-01 -4.116274e-02 1.504078e-01 9.693591e-02 3.103505e-02 1.093103e-01 1.742855e-02 7.219671e-04 -1.666514e-02 1.326055e-02 2.245261e-01 -9.635597e-02 -4.131540e-02 1.896976e-01 1.949199e-01 1.515781e-01 -1.856504e-02 -1.213169e-01 3.814332e-02 9.018897e-02 -2.031974e-01 -3.857134e-01 -1.461872e-01 -8.112014e-02 -3.304104e-01 -2.346585e-01 -1.045384e-01 -1.615916e-01 -1.090381e-01 -6.268071e-02 -8.431029e-02 -2.757968e-02 -5.205278e-03 9.283354e-03 6.081384e-04 -1.144967e-01
<VARIANCE> 75
 4.988996e+00 5.971636e+00 4.552111e+00 5.830253e+00 4.264791e+00 4.623153e+00 5.322932e+00 5.116519e+00 6.184144e+00 5.084117e+00 6.039716e+00 3.753251e+00 4.371147e+00 3.828544e+00 2.207846e+00 2.002619e+00 1.150919e+00 7.277830e-01 4.863944e-01 2.574824e-01 8.294155e-02 1.266045e-02 5.422888e-03 4.761852e-02 3.523612e+00 5.352790e-01 4.818374e-01 6.169310e-01 7.454798e-01 5.878358e-01 6.092883e-01 8.506760e-01 6.975735e-01 8.661157e-01 6.242855e-01 1.079937e+00 5.327169e-01 6.018775e-01 6.326822e-01 3.824078e-01 2.917992e-01 2.143344e-01 1.273297e-01 7.232470e-02 4.249704e-02 1.141167e-02 1.852417e-03 9.250261e-04 7.536294e-03 2.069653e-01 6.132307e-02 7.884143e-02 8.868606e-02 1.151660e-01 9.478334e-02 9.011701e-02 1.141708e-01 1.212985e-01 1.359062e-01 1.032216e-01 1.318573e-01 8.187529e-02 8.682020e-02 8.367951e-02 5.046382e-02 4.237251e-02 2.940540e-02 1.868373e-02 1.050786e-02 6.290907e-03 2.055463e-03 3.019315e-04 1.272307e-04 1.236623e-03 2.024776e-02
<GCONST> 1.413671e+01
<MIXTURE> 2 7.967117e-02
<MEAN> 75
 -1.950014e+01 -7.024598e+00 1.993491e+00 -3.341354e+00 1.224298e+00 3.647747e+00 2.542380e+00 3.817684e+00 2.123866e+00 4.232959e+00 1.747499e+00 2.486356e+00 2.171075e+00 1.901966e+00 9.501850e-01 1.560564e+00 6.554579e-01 7.977539e-01 8.807380e-01 1.448700e-01 4.736793e-02 1.369493e-02 -2.761723e-04 3.989391e-02 1.748736e+01 1.627659e-01 8.899598e-02 -2.938962e-01 4.580799e-02 -3.174500e-01 2.187794e-01 5.735211e-02 1.868222e-01 1.211647e-01 2.581623e-01 4.142848e-01 2.476152e-01 2.099516e-01 2.482297e-01 2.544651e-01 1.651642e-01 1.604432e-01 1.112225e-01 8.973236e-02 8.036061e-02 4.141552e-02 1.157291e-02 -8.978424e-03 -8.552169e-03 4.621089e-02 3.916286e-02 8.962275e-02 -1.507574e-01 -1.018304e-01 -5.458024e-02 -6.458672e-02 1.177758e-01 -1.484411e-01 -1.617893e-01 -7.068664e-02 8.161790e-02 -6.059333e-02 -1.126910e-01 4.496599e-02 2.955639e-02 -2.297004e-02 4.109117e-02 1.468571e-02 -8.261488e-03 2.415348e-02 2.118946e-03 5.784533e-04 -3.398590e-03 2.261335e-03 3.506614e-02
<VARIANCE> 75
 1.930057e+01 3.679506e+01 2.104510e+01 2.703171e+01 1.556193e+01 1.659199e+01 1.662755e+01 1.298966e+01 1.363304e+01 1.189167e+01 1.673581e+01 1.108705e+01 7.144060e+00 6.670921e+00 5.462187e+00 3.436995e+00 2.336557e+00 1.744228e+00 1.104781e+00 4.243788e-01 1.527002e-01 2.568601e-02 8.140079e-03 9.834573e-02 5.304199e+00 4.965860e-01 1.324460e+00 1.114535e+00 1.248969e+00 1.115443e+00 1.061762e+00 1.185209e+00 9.959101e-01 1.007731e+00 8.904029e-01 9.603751e-01 7.160660e-01 6.563768e-01 5.973239e-01 4.022003e-01 3.292336e-01 2.412071e-01 1.424086e-01 7.931052e-02 4.232034e-02 1.457118e-02 2.425778e-03 8.290557e-04 7.926063e-03 1.476027e-01 1.069206e-01 2.244776e-01 2.048252e-01 2.695163e-01 2.412234e-01 2.431258e-01 2.835489e-01 2.171225e-01 2.715879e-01 1.882562e-01 2.472893e-01 1.557136e-01 1.336376e-01 1.348809e-01 9.130764e-02 6.909493e-02 5.531477e-02 3.243638e-02 1.745384e-02 9.607042e-03 3.185918e-03 5.035807e-04 1.911921e-04 1.965883e-03 2.651452e-02
<GCONST> 5.772732e+01
<MIXTURE> 3 7.787400e-02
<MEAN> 75
 -1.998718e+01 9.099491e-01 -3.658459e+00 7.532188e-01 4.789473e-01 4.566205e+00 3.803566e+00 4.185009e+00 2.808295e+00 3.544785e+00 2.911630e+00 2.680034e+00 1.918970e+00 2.320289e+00 2.198399e+00 2.019038e+00 1.640839e+00 1.106681e+00 6.214910e-01 3.743933e-01 1.565619e-01 4.158417e-02 -1.153746e-02 1.075122e-02 1.571706e+01 2.937424e-01 3.992048e-02 -9.085070e-02 -2.067316e-01 -1.221624e-01 1.573716e-01 2.739413e-01 -4.590297e-02 -1.756359e-01 2.007800e-01 4.008546e-01 8.756807e-02 2.169672e-02 2.593431e-01 1.298977e-01 -2.530967e-02 5.409653e-02 5.282153e-02 3.720537e-02 6.610667e-02 1.199208e-02 2.768121e-03 -7.370158e-03 -4.520212e-03 1.770500e-01 3.020637e-01 -4.213079e-02 -1.281783e-01 -2.246252e-01 -1.613737e-01 6.556274e-02 1.895730e-01 -7.302360e-02 -2.188320e-01 1.494697e-01 3.703614e-01 2.142421e-02 -8.456144e-02 2.175632e-01 1.008890e-01 -4.997378e-02 4.787497e-02 2.892335e-02 1.879361e-02 5.605964e-02 5.916299e-03 6.531676e-04 -8.079254e-03 1.074072e-03 1.822773e-01
<VARIANCE> 75
 1.922433e+00 1.425576e+00 2.272187e+00 3.008797e+00 3.411562e+00 4.107388e+00 4.783305e+00 5.136346e+00 5.833302e+00 5.132639e+00 4.990120e+00 4.379113e+00 3.961681e+00 3.473289e+00 2.512788e+00 2.051041e+00 1.397596e+00 9.413998e-01 5.664990e-01 2.860279e-01 1.033802e-01 1.693146e-02 5.010794e-03 5.528515e-02 8.978060e-01 2.592191e-01 1.033491e-01 1.593174e-01 2.471302e-01 2.880949e-01 3.341587e-01 3.958539e-01 4.170938e-01 5.043828e-01 4.440132e-01 5.770318e-01 4.190810e-01 4.239561e-01 4.137013e-01 2.961567e-01 2.093069e-01 1.479750e-01 9.967765e-02 5.468961e-02 2.609212e-02 9.802930e-03 1.332658e-03 5.188025e-04 5.572160e-03 1.372328e-01 4.362849e-02 1.997244e-02 3.345065e-02 5.097314e-02 5.802125e-02 7.353239e-02 8.788830e-02 9.177139e-02 1.110249e-01 9.085137e-02 9.925871e-02 8.140967e-02 7.675476e-02 7.579888e-02 5.559345e-02 4.024445e-02 2.823131e-02 1.874991e-02 1.100055e-02 5.571667e-03 2.035749e-03 3.267858e-04 1.080995e-04 1.160923e-03 1.910217e-02
<GCONST> -9.699697e+00
<MIXTURE> 4 3.144019e-02
<MEAN> 75
 -2.122471e+01 -5.728112e-01 -3.130213e+00 -1.087468e+00 -1.900325e-01 2.980175e+00 2.490799e+00 3.165685e+00 1.938192e+00 3.787488e+00 1.963284e+00 1.982561e+00 1.392657e+00 1.774616e+00 2.401998e+00 2.082888e+00 1.453424e+00 1.123147e+00 5.144936e-01 2.177643e-01 1.145339e-01 2.298352e-02 -6.588396e-03 4.662391e-02 1.430092e+01 -1.249261e-01 1.039320e-01 3.137817e-02 -7.943119e-02 2.464523e-03 -2.272151e-01 1.709446e-01 2.165274e-01 2.166557e-01 8.666911e-02 6.143408e-02 4.001369e-02 5.699474e-02 1.694790e-01 1.388416e-02 -6.694989e-02 -1.623569e-02 -4.745505e-02 -1.574023e-02 6.704747e-03 -1.103790e-03 -4.858207e-03 1.569644e-04 2.317298e-03 5.088490e-02 -4.160357e-01 -8.818634e-01 7.545105e-01 -1.291182e+00 7.771776e-01 -2.805459e-01 1.004586e-01 -9.259068e-01 -4.118381e-01 -7.830387e-02 -2.757133e-01 -2.547442e-01 -1.243365e-01 -2.874692e-01 -1.300526e-01 -7.356057e-02 -1.441146e-01 1.760778e-02 1.103840e-02 -1.206243e-02 -8.680149e-03 -4.518322e-03 -1.630797e-03 -1.683006e-02 4.438585e-01
<VARIANCE> 75
 1.433641e+00 3.868516e+00 4.111706e+00 5.793752e+00 8.347267e+00 7.679719e+00 6.548782e+00 8.089466e+00 7.067715e+00 7.144543e+00 7.613712e+00 6.590961e+00 5.148302e+00 4.922905e+00 3.849169e+00 2.588848e+00 1.642444e+00 1.270217e+00 7.341647e-01 3.957936e-01 1.438497e-01 1.757317e-02 4.776892e-03 6.459997e-02 4.499578e-01 3.274729e-01 1.259014e+00 9.161013e-01 1.545701e+00 1.692918e+00 1.423019e+00 1.266737e+00 1.803978e+00 1.262310e+00 1.144839e+00 1.090386e+00 7.686510e-01 8.355212e-01 7.623055e-01 5.803019e-01 3.648947e-01 2.761157e-01 1.600719e-01 8.361191e-02 4.590736e-02 1.591595e-02 2.156690e-03 7.769096e-04 8.011092e-03 1.313328e-01 2.171799e-01 2.278939e-01 3.820218e-01 6.212793e-01 5.427636e-01 4.916614e-01 4.394197e-01 7.033213e-01 3.719828e-01 4.689480e-01 4.261988e-01 3.702112e-01 2.451487e-01 2.718436e-01 1.652893e-01 1.060764e-01 7.000955e-02 5.180691e-02 2.448401e-02 1.273114e-02 4.966160e-03 5.502152e-04 1.800918e-04 2.271767e-03 6.311288e-02
<GCONST> 5.397877e+01
<MIXTURE> 5 4.535751e-02
<MEAN> 75
 -2.144715e+01 -8.450156e-01 -2.560821e+00 -2.087893e+00 3.143072e-01 2.584698e+00 2.743488e+00 2.895591e+00 1.536983e+00 3.816287e+00 1.908727e+00 2.475434e+00 1.621152e+00 1.861831e+00 2.431420e+00 1.777863e+00 1.207240e+00 1.262794e+00 4.895525e-01 2.190304e-01 1.176314e-01 8.411472e-03 -6.077203e-04 2.200514e-02 1.453424e+01 -1.205388e+00 -1.735555e+00 1.795603e+00 -2.843587e+00 1.477660e+00 -1.243275e+00 4.439595e-01 -1.840512e+00 -5.924254e-01 -5.500671e-01 -7.819117e-01 -7.602051e-01 -1.967482e-01 -4.180104e-01 -3.054602e-01 -1.813055e-01 -2.620103e-01 -2.415775e-02 1.026975e-02 -4.160697e-02 -5.510255e-03 -8.877344e-03 -4.421162e-03 -2.968123e-02 1.134928e+00 -3.666006e-01 -6.719315e-01 6.281754e-01 -1.072846e+00 5.354119e-01 -3.597232e-01 1.635669e-01 -8.176955e-01 -3.354180e-01 -2.584289e-01 -2.634318e-01 -3.296098e-01 -1.502676e-01 -2.551705e-01 -1.008804e-01 -5.434497e-02 -1.022787e-01 6.276503e-04 2.948376e-03 -1.599016e-02 -4.889626e-03 -4.481461e-03 -1.922220e-03 -1.414098e-02 4.169220e-01
<VARIANCE> 75
 3.869749e+00 5.559338e+00 7.240083e+00 8.978640e+00 1.007715e+01 7.824263e+00 8.589494e+00 9.142963e+00 8.357234e+00 7.469687e+00 8.476685e+00 6.437203e+00 5.641852e+00 5.349847e+00 5.176451e+00 2.876684e+00 2.109572e+00 1.469823e+00 7.890993e-01 3.863921e-01 1.282089e-01 2.019763e-02 6.283214e-03 8.368263e-02 1.064025e+00 1.300465e+00 2.159398e+00 1.944975e+00 3.287893e+00 3.322473e+00 2.733127e+00 2.991040e+00 3.775892e+00 2.566869e+00 2.713761e+00 2.034350e+00 2.269339e+00 1.438836e+00 1.331778e+00 9.184015e-01 6.647455e-01 4.135879e-01 3.311860e-01 1.411722e-01 8.364533e-02 2.646030e-02 3.487110e-03 1.113629e-03 1.254560e-02 3.815316e-01 1.832908e-01 2.191824e-01 2.774755e-01 4.641057e-01 3.919142e-01 3.358732e-01 3.314403e-01 5.432398e-01 2.909044e-01 3.448611e-01 2.902524e-01 2.624297e-01 2.125563e-01 1.824201e-01 1.386273e-01 9.211109e-02 6.021816e-02 4.571122e-02 1.999165e-02 1.121372e-02 3.904714e-03 5.321390e-04 1.966977e-04 2.175252e-03 5.179368e-02
<GCONST> 7.134305e+01
<MIXTURE> 6 5.547287e-02
<MEAN> 75
 -1.962719e+01 -9.034919e-01 -4.162679e+00 -6.391771e-01 -5.311602e-01 4.332578e+00 3.918519e+00 3.901756e+00 1.855572e+00 2.762903e+00 1.750663e+00 1.397609e+00 6.074729e-01 7.607788e-01 7.831863e-01 8.887053e-01 7.410157e-01 5.310733e-01 4.815216e-01 3.509912e-01 1.186674e-01 4.629863e-02 -2.463876e-02 -2.944432e-02 1.506524e+01 -2.894850e-03 5.207667e-02 -4.627317e-02 -6.774600e-02 1.284469e-02 1.393711e-01 1.785519e-01 1.631117e-01 2.179035e-01 3.294139e-01 3.670593e-01 2.697849e-01 2.679837e-01 3.375295e-01 2.704283e-01 2.050265e-01 1.875395e-01 1.434229e-01 1.111039e-01 8.739489e-02 4.231540e-02 1.389181e-02 -8.008087e-03 -1.795370e-02 1.079348e-01 5.581264e-02 1.173233e-03 1.871248e-02 -1.533139e-02 6.109402e-04 -1.533188e-02 -1.928971e-02 -4.301853e-02 8.891520e-04 1.015014e-01 1.570211e-01 1.593198e-01 1.684870e-01 2.141404e-01 1.759733e-01 1.408250e-01 1.080353e-01 6.575933e-02 2.047521e-02 6.523177e-03 -3.780594e-03 -2.811526e-03 1.129680e-03 7.196566e-03 8.202478e-02
<VARIANCE> 75
 3.479271e+00 6.016084e+00 8.832950e+00 5.465411e+00 5.370099e+00 5.644645e+00 5.869524e+00 6.748188e+00 6.450347e+00 7.186203e+00 6.481984e+00 5.288445e+00 5.103416e+00 5.008417e+00 3.639679e+00 2.382536e+00 1.725044e+00 1.296006e+00 6.823912e-01 3.891341e-01 1.258691e-01 1.906140e-02 5.749214e-03 7.392282e-02 8.940400e-01 1.352898e-01 1.283846e-01 2.392060e-01 3.742146e-01 4.173083e-01 4.831597e-01 5.760937e-01 6.013492e-01 6.551437e-01 6.090876e-01 6.219361e-01 5.252053e-01 5.161104e-01 4.631947e-01 3.396904e-01 2.588646e-01 1.860783e-01 1.336763e-01 6.578796e-02 3.671683e-02 1.355058e-02 1.952788e-03 6.152832e-04 8.081856e-03 6.916034e-02 2.613504e-02 2.302408e-02 4.254578e-02 6.183206e-02 7.496963e-02 9.761902e-02 1.008349e-01 1.250899e-01 1.170909e-01 1.204266e-01 1.329077e-01 9.502669e-02 9.124175e-02 8.630639e-02 5.813720e-02 4.580592e-02 3.471925e-02 2.738229e-02 1.454683e-02 7.671737e-03 2.579306e-03 4.003747e-04 1.321980e-04 1.454133e-03 1.543303e-02
<GCONST> 8.491789e+00
<MIXTURE> 7 5.955764e-02
<MEAN> 75
 -1.822288e+01 -5.813548e+00 1.157429e+00 -2.936957e+00 -4.909979e-01 5.832252e+00 5.006962e+00 4.460356e+00 2.539547e+00 5.579813e+00 3.408963e+00 4.340813e+00 3.531181e+00 2.989920e+00 2.216213e+00 2.644638e+00 1.948277e+00 1.429019e+00 1.278190e+00 6.159828e-01 2.370576e-01 5.289319e-02 -3.883955e-02 -1.624762e-02 1.825970e+01 1.699426e-01 2.090306e-01 -2.223974e-01 1.244188e-01 -9.975223e-02 9.834632e-02 7.954651e-02 6.072119e-02 5.528707e-02 8.156856e-02 2.274608e-01 1.643554e-01 1.319020e-01 1.676224e-01 1.590078e-01 9.985044e-02 1.167980e-01 8.691917e-02 4.632255e-02 4.399486e-02 2.467895e-02 5.995310e-03 -3.895212e-03 9.132743e-04 1.039790e-01 -1.079940e-02 -4.948555e-03 -2.733865e-02 -9.058015e-04 -8.859510e-03 -6.802461e-02 -2.891260e-02 -6.293677e-02 -8.646668e-02 -6.913104e-02 -4.151848e-02 -9.806377e-02 -1.032968e-01 -5.010629e-02 -4.796546e-02 -6.473912e-02 -4.618343e-02 -3.374719e-02 -3.257560e-02 -9.938218e-03 -9.516826e-03 -3.512139e-03 5.256489e-04 3.439647e-03 -2.806586e-02
<VARIANCE> 75
 1.314629e+01 1.988443e+01 1.875747e+01 1.507031e+01 9.360641e+00 7.894427e+00 7.073167e+00 9.516343e+00 7.589210e+00 8.237278e+00 6.037755e+00 5.075090e+00 4.385135e+00 4.053234e+00 3.742695e+00 2.145865e+00 1.586604e+00 1.186131e+00 6.297560e-01 2.752029e-01 1.041324e-01 1.597168e-02 5.043064e-03 6.105435e-02 3.191808e+00 3.266311e-01 5.695410e-01 5.741218e-01 5.346023e-01 5.392933e-01 4.517051e-01 5.085405e-01 5.384006e-01 6.910711e-01 4.694071e-01 5.556932e-01 4.474422e-01 4.578916e-01 3.692045e-01 3.231657e-01 2.403132e-01 1.489611e-01 9.241323e-02 5.638412e-02 3.154396e-02 9.321704e-03 1.419575e-03 5.935728e-04 6.524717e-03 8.858983e-02 4.539418e-02 8.414232e-02 8.302490e-02 9.021980e-02 8.257525e-02 7.392018e-02 8.946135e-02 1.104585e-01 1.153830e-01 1.026632e-01 9.528952e-02 8.762496e-02 8.569629e-02 6.902779e-02 5.379920e-02 4.102054e-02 2.841084e-02 1.946665e-02 1.093195e-02 5.718676e-03 2.031509e-03 3.029886e-04 1.133610e-04 1.224783e-03 1.395921e-02
<GCONST> 1.429313e+01
<MIXTURE> 8 8.340824e-02
<MEAN> 75
 -2.356896e+01 -1.302306e+01 3.544483e+00 -1.040694e+01 5.053895e+00 -2.013752e+00 4.124920e+00 -5.776966e-01 1.703959e+00 2.278202e+00 -7.594701e-01 -4.144207e-02 2.022220e-02 1.436971e+00 -3.563662e-01 8.829657e-01 -7.218011e-02 6.420142e-01 1.000633e+00 2.011314e-01 6.719086e-02 6.434651e-02 -1.542997e-02 -3.772854e-03 1.884779e+01 6.471379e-02 -4.491457e-01 3.077928e-01 -4.375529e-01 5.513748e-02 -2.230955e-01 5.517334e-02 -5.978092e-02 6.207212e-02 1.441695e-02 -1.494070e-01 4.483505e-02 -1.441499e-02 -6.667867e-02 -1.038627e-01 -5.018119e-02 -4.913547e-02 -9.809700e-03 6.014909e-03 -1.748304e-02 -1.050847e-02 -4.108625e-03 1.113407e-03 6.446894e-03 1.382428e-01 1.968748e-01 3.947981e-01 -2.533420e-01 3.928676e-01 -2.391937e-01 3.304503e-01 -7.402960e-02 2.552856e-01 -4.629789e-02 6.585679e-02 1.234011e-01 8.751446e-02 4.099856e-02 -2.171799e-02 7.764392e-02 1.988669e-02 4.259365e-02 7.332070e-04 -2.422846e-02 -6.301366e-03 -4.705954e-03 -4.016673e-03 4.001222e-04 -2.136396e-04 -1.398926e-01
<VARIANCE> 75
 2.558493e+01 4.313944e+01 1.929214e+01 3.468520e+01 4.723048e+01 2.254012e+01 3.029721e+01 2.135398e+01 2.050546e+01 1.865075e+01 1.750172e+01 1.792324e+01 1.082633e+01 8.382342e+00 7.108968e+00 5.274775e+00 4.009551e+00 2.384117e+00 1.354914e+00 5.388584e-01 2.061251e-01 2.762779e-02 8.060394e-03 9.448405e-02 3.473878e+00 1.212955e+00 2.979824e+00 2.063566e+00 3.236573e+00 2.921804e+00 2.577460e+00 2.190285e+00 2.174183e+00 1.904702e+00 1.459957e+00 1.710785e+00 1.380145e+00 9.863199e-01 7.153074e-01 6.331995e-01 4.886908e-01 3.604899e-01 1.924928e-01 1.258388e-01 5.002095e-02 2.068104e-02 2.723604e-03 7.925316e-04 9.139028e-03 4.261602e-01 2.130069e-01 4.545208e-01 4.533416e-01 5.207396e-01 6.127429e-01 4.640240e-01 4.856122e-01 4.013434e-01 4.006149e-01 3.103935e-01 3.750703e-01 2.895434e-01 2.031823e-01 1.639869e-01 1.318685e-01 1.070699e-01 7.935300e-02 4.385542e-02 2.709314e-02 1.094108e-02 4.577052e-03 6.077104e-04 1.823042e-04 1.923237e-03 6.518833e-02
<GCONST> 8.956890e+01
<MIXTURE> 9 4.345019e-02
<MEAN> 75
 -2.039088e+01 -1.539851e+00 -5.586584e+00 -1.635541e+00 -1.255085e+00 3.611551e+00 3.554295e+00 4.682413e+00 3.672410e+00 3.540331e+00 5.361118e-01 6.375791e-02 1.150202e+00 3.612304e+00 4.326917e+00 3.224089e+00 1.502287e+00 6.267580e-01 7.640077e-02 -6.985401e-02 -3.362427e-02 2.633220e-02 -3.729083e-02 -1.702681e-01 1.423201e+01 -7.713293e-02 1.316227e-01 8.070818e-02 9.940389e-02 8.182785e-02 1.510946e-04 3.603669e-02 7.188594e-02 3.652872e-03 -2.527255e-02 4.521386e-02 2.525162e-02 -5.813519e-03 -1.005609e-01 -8.795848e-02 -1.603889e-02 3.937414e-02 3.630264e-02 2.129006e-02 1.747806e-02 7.815062e-03 1.741352e-03 1.591915e-03 7.941026e-03 -3.507642e-02 1.385177e-03 3.393660e-03 2.209231e-02 -2.010874e-02 1.063409e-02 -3.707222e-03 -2.270078e-02 -3.409531e-02 -3.306248e-02 3.268986e-03 1.411120e-02 -2.133713e-03 -1.927530e-02 -7.304569e-02 -9.538873e-02 -5.515946e-02 -1.512193e-02 3.951392e-03 1.011465e-02 2.523288e-03 -2.233166e-03 -3.372724e-03 1.683847e-03 3.463748e-03 3.944610e-03
<VARIANCE> 75
 1.972436e+00 6.664439e+00 1.048124e+01 8.428226e+00 8.552230e+00 8.435184e+00 9.571548e+00 9.308361e+00 8.484939e+00 7.193541e+00 8.401617e+00 1.072241e+01 8.657923e+00 8.042734e+00 5.764862e+00 4.095203e+00 3.437537e+00 2.464075e+00 1.241069e+00 5.001637e-01 2.261821e-01 2.986006e-02 7.187334e-03 1.805871e-01 1.532117e-01 7.040192e-02 4.321288e-01 2.941141e-01 4.128293e-01 3.879737e-01 4.935268e-01 6.890769e-01 8.284957e-01 6.751845e-01 5.524405e-01 6.784337e-01 6.994497e-01 5.642738e-01 5.449215e-01 4.433985e-01 2.780226e-01 1.688365e-01 1.258256e-01 8.447701e-02 3.719413e-02 1.281834e-02 2.083481e-03 6.278957e-04 6.842716e-03 8.590346e-03 1.125276e-02 5.172146e-02 4.500956e-02 7.044832e-02 6.544311e-02 9.395822e-02 1.316324e-01 1.499154e-01 1.216833e-01 1.042266e-01 1.369534e-01 1.327928e-01 1.023826e-01 8.921479e-02 8.233431e-02 4.732163e-02 3.172215e-02 2.386307e-02 1.660536e-02 7.582725e-03 2.449676e-03 4.150195e-04 1.112219e-04 1.450383e-03 1.436093e-03
<GCONST> 1.475503e+01
<MIXTURE> 10 6.403501e-02
<MEAN> 75
 -1.901571e+01 8.416979e-01 -3.746421e+00 2.508152e-01 3.823856e-01 4.958664e+00 4.486185e+00 4.368837e+00 2.765223e+00 4.362916e+00 4.064316e+00 3.165264e+00 2.101372e+00 3.082187e+00 2.763781e+00 2.228376e+00 1.920335e+00 1.331597e+00 8.425726e-01 5.814901e-01 2.145442e-01 5.490619e-02 -2.840419e-02 -1.278813e-02 1.673924e+01 -7.004661e-01 9.038767e-02 2.985936e-01 5.112599e-01 3.906418e-01 -1.450156e-01 -4.000073e-01 2.227146e-01 5.591764e-01 -3.128116e-01 -8.288340e-01 -1.588105e-02 2.090304e-01 -5.135006e-01 -2.565673e-01 1.074415e-01 -1.289364e-01 -7.819732e-02 -2.806168e-02 -1.339350e-01 -8.394214e-03 -4.418175e-04 1.989733e-02 -1.155945e-02 -4.521868e-01 2.026031e-01 -2.645320e-02 -8.847886e-02 -1.571543e-01 -1.173278e-01 4.318403e-02 1.213807e-01 -7.761355e-02 -1.863202e-01 6.887492e-02 2.170051e-01 -1.400025e-02 -7.865115e-02 1.279168e-01 4.180042e-02 -6.212990e-02 1.838385e-02 1.689043e-03 -3.544422e-03 3.214766e-02 9.565032e-04 -4.601075e-04 -5.724214e-03 1.915637e-03 8.682446e-02
<VARIANCE> 75
 3.073263e+00 2.096876e+00 3.598047e+00 5.528569e+00 4.570712e+00 3.693241e+00 4.723307e+00 5.756728e+00 7.271841e+00 4.865001e+00 5.192781e+00 4.513291e+00 4.045778e+00 3.268300e+00 2.602583e+00 1.988789e+00 1.392879e+00 8.408774e-01 4.783450e-01 2.488645e-01 9.030768e-02 1.299128e-02 4.597100e-03 4.858897e-02 1.061427e+00 1.457493e-01 1.047777e-01 1.637081e-01 2.362647e-01 2.679180e-01 2.969438e-01 3.544917e-01 3.985811e-01 5.194318e-01 3.926838e-01 3.725892e-01 3.585628e-01 3.266969e-01 2.970157e-01 2.436846e-01 1.901866e-01 1.274046e-01 7.849163e-02 4.522409e-02 2.219004e-02 7.905549e-03 1.361252e-03 4.466846e-04 4.910719e-03 5.980039e-02 4.268405e-02 1.828634e-02 3.503463e-02 6.212003e-02 5.675641e-02 6.077882e-02 7.738868e-02 8.051845e-02 1.055873e-01 8.013305e-02 8.690387e-02 7.020910e-02 6.871457e-02 6.517276e-02 5.042514e-02 3.976747e-02 2.822837e-02 1.633080e-02 9.201767e-03 4.749421e-03 1.601151e-03 2.473479e-04 9.460644e-05 9.513249e-04 1.667747e-02
<GCONST> -1.532520e+01
<MIXTURE> 11 4.845301e-02
<MEAN> 75
 -1.913773e+01 -6.223091e+00 -1.171471e+00 -4.292078e+00 -1.252567e+00 2.685999e+00 2.295933e+00 2.066314e+00 1.280285e-01 2.717838e+00 1.980425e+00 3.402619e+00 2.688411e+00 2.493526e+00 2.909004e+00 2.817593e+00 2.320853e+00 2.156196e+00 1.362948e+00 6.270480e-01 1.670881e-01 -3.314453e-02 6.474901e-03 1.545095e-01 1.657030e+01 7.385542e-02 1.063672e-01 -1.499364e-01 1.672086e-01 -1.710594e-02 1.536036e-01 7.287185e-02 1.462506e-01 1.209695e-01 1.101044e-01 1.616229e-01 5.701630e-02 1.046801e-01 1.563199e-01 1.510605e-01 1.273328e-01 1.349840e-01 9.568685e-02 6.180982e-02 4.420169e-02 2.346992e-02 3.280880e-03 1.601827e-03 3.600300e-03 8.101366e-03 2.764110e-02 7.737987e-02 1.239970e-02 4.635688e-02 6.915825e-02 9.818009e-02 1.396517e-01 7.296436e-02 7.212785e-02 5.698927e-02 3.864335e-02 -6.024582e-02 -1.137525e-01 -4.926325e-02 -1.084327e-01 -1.247012e-01 -1.007013e-01 -8.799037e-02 -5.257969e-02 -2.125891e-02 -4.847507e-03 2.501139e-03 -2.948763e-03 -4.247349e-03 3.565910e-02
<VARIANCE> 75
 1.362107e+01 2.799585e+01 2.594636e+01 1.702331e+01 1.892650e+01 1.971897e+01 1.784443e+01 1.544897e+01 2.115755e+01 1.690395e+01 1.339401e+01 1.325395e+01 1.055135e+01 9.705820e+00 6.444521e+00 4.862594e+00 4.018553e+00 3.088688e+00 1.465560e+00 5.971540e-01 2.466948e-01 3.657800e-02 1.293614e-02 1.779981e-01 2.611138e+00 1.695627e-01 2.879371e-01 3.759196e-01 4.804558e-01 5.366319e-01 6.238688e-01 6.929223e-01 7.882922e-01 8.924255e-01 8.429271e-01 7.972306e-01 6.586375e-01 5.949583e-01 4.671694e-01 3.993504e-01 2.919877e-01 2.437874e-01 1.545534e-01 7.558957e-02 3.889548e-02 1.564922e-02 2.619276e-03 7.332595e-04 9.187678e-03 3.923474e-02 3.776427e-02 5.821561e-02 8.185555e-02 9.974184e-02 1.133230e-01 1.347118e-01 1.408905e-01 1.600105e-01 1.902832e-01 1.590746e-01 1.586216e-01 1.367069e-01 1.340755e-01 1.156512e-01 8.394018e-02 7.415344e-02 5.575735e-02 3.703592e-02 1.786413e-02 9.622381e-03 3.475039e-03 4.849774e-04 1.791658e-04 2.193833e-03 1.033456e-02
<GCONST> 4.502470e+01
<MIXTURE> 12 7.758141e-02
<MEAN> 75
 -1.635965e+01 -2.936658e+00 8.265479e-01 -1.981568e+00 2.144645e-01 2.328076e+00 2.249670e+00 1.767490e+00 -1.706473e-01 1.459625e+00 2.364696e-01 6.247395e-01 -2.678617e-01 7.124349e-02 -4.196071e-01 2.230263e-01 1.570444e-01 5.252776e-02 3.006763e-02 -1.621739e-01 -1.756896e-01 -6.510142e-02 1.795359e-02 7.341802e-02 1.813000e+01 9.562445e-02 -7.640561e-02 2.561016e-01 -8.758581e-02 7.831621e-02 -1.866837e-02 -2.656981e-02 -2.785204e-04 -2.517064e-02 -4.569570e-02 -1.061646e-01 -8.594949e-02 -1.045884e-01 -1.152955e-01 -1.154061e-01 -8.780458e-02 -9.024828e-02 -4.543663e-02 -2.946647e-02 -1.968282e-02 -1.873871e-02 -9.704684e-03 3.782365e-03 3.353846e-03 1.141116e-01 -1.488668e-01 -1.454082e-01 -7.334733e-02 -1.459863e-01 3.537246e-02 1.011147e-02 1.152443e-01 1.498868e-02 1.011671e-01 1.531633e-01 1.511355e-01 7.044000e-02 1.093187e-01 1.865595e-01 1.391975e-01 7.925167e-02 6.846026e-02 6.327686e-02 5.561563e-02 4.566268e-02 2.483561e-02 8.798071e-03 -4.931512e-03 -1.632795e-03 1.536943e-02
<VARIANCE> 75
 2.608432e+01 3.042841e+01 2.355087e+01 1.958158e+01 1.883135e+01 1.825599e+01 1.510700e+01 1.326418e+01 1.126688e+01 1.166012e+01 1.094034e+01 8.970214e+00 7.355776e+00 5.679278e+00 4.455902e+00 3.080403e+00 2.365947e+00 1.460999e+00 8.199379e-01 4.037218e-01 1.559016e-01 2.339456e-02 6.894032e-03 7.953028e-02 8.495882e+00 1.200851e+00 1.584287e+00 1.605570e+00 1.523354e+00 1.806527e+00 1.603752e+00 1.575061e+00 1.372449e+00 1.396467e+00 1.217345e+00 1.354121e+00 9.428102e-01 8.875238e-01 8.314790e-01 6.119360e-01 3.837435e-01 3.167294e-01 1.892943e-01 9.863315e-02 5.750538e-02 1.791201e-02 2.892724e-03 9.218247e-04 1.007104e-02 3.739855e-01 1.819435e-01 2.613107e-01 2.785837e-01 2.787203e-01 3.090529e-01 2.996562e-01 2.682889e-01 2.472430e-01 2.423870e-01 2.163874e-01 2.385849e-01 1.716850e-01 1.689876e-01 1.366235e-01 1.014240e-01 7.252983e-02 5.764178e-02 3.332836e-02 1.645403e-02 9.526342e-03 3.332947e-03 5.048259e-04 1.563526e-04 1.774236e-03 6.066606e-02
<GCONST> 6.699970e+01
<MIXTURE> 13 9.872905e-02
<MEAN> 75
 -1.976608e+01 3.293210e-01 -4.645515e+00 -5.297840e-01 -6.359640e-01 3.959264e+00 3.480949e+00 3.386854e+00 1.818555e+00 3.353027e+00 3.337806e+00 2.772753e+00 1.929408e+00 2.733484e+00 2.372020e+00 2.022906e+00 1.713084e+00 1.096054e+00 6.431845e-01 4.608496e-01 1.623583e-01 5.231667e-02 -2.407680e-02 2.714490e-02 1.533434e+01 -1.392105e-01 1.210058e-03 1.424716e-02 2.507085e-02 -1.538477e-02 -1.064682e-01 -1.425059e-01 -2.935284e-02 1.069854e-03 -1.281390e-01 -2.031586e-01 -1.175523e-01 -9.265232e-02 -1.274151e-01 -9.820072e-02 -5.025402e-02 -7.052523e-02 -7.485863e-02 -4.824178e-02 -3.852239e-02 -1.617138e-02 -4.705892e-03 4.700403e-03 7.535160e-03 -1.330446e-01 -3.531019e-04 -2.889204e-03 3.427923e-02 3.198872e-02 3.497707e-02 2.645412e-02 2.635944e-02 2.861570e-02 5.589726e-03 2.806708e-04 -3.614346e-02 -5.053999e-02 -5.891561e-02 -5.577656e-02 -4.543949e-02 -4.123629e-02 -2.894369e-02 -8.839715e-03 -4.423292e-03 -6.294707e-03 -3.984866e-03 -2.072784e-03 8.656726e-04 1.352050e-05 3.811507e-03
<VARIANCE> 75
 2.554654e+00 1.470792e+00 2.555413e+00 2.956439e+00 2.986738e+00 3.080147e+00 3.988150e+00 4.521054e+00 5.215674e+00 4.138944e+00 4.752685e+00 4.319792e+00 4.016521e+00 3.350909e+00 2.603005e+00 2.161498e+00 1.534246e+00 1.041522e+00 6.016386e-01 2.775938e-01 9.996781e-02 1.425915e-02 4.600494e-03 5.533757e-02 1.015181e+00 1.389092e-01 9.225999e-02 1.613234e-01 2.319810e-01 2.873068e-01 3.820720e-01 4.617491e-01 5.334060e-01 5.563841e-01 5.353358e-01 5.431855e-01 5.026414e-01 4.883966e-01 4.095609e-01 3.318514e-01 2.685436e-01 1.914231e-01 1.297499e-01 6.827391e-02 3.621323e-02 1.257790e-02 1.850453e-03 5.638366e-04 6.779814e-03 6.577986e-02 2.509688e-02 1.696845e-02 2.591917e-02 3.637036e-02 4.502590e-02 6.323647e-02 7.704838e-02 8.950505e-02 9.082519e-02 8.500062e-02 8.602040e-02 9.085247e-02 8.955164e-02 6.770985e-02 4.987123e-02 4.537083e-02 3.280491e-02 2.529538e-02 1.317606e-02 6.190351e-03 2.109045e-03 3.113216e-04 9.184564e-05 1.207717e-03 1.226043e-02
<GCONST> -1.040672e+01
<MIXTURE> 14 6.683295e-02
<MEAN> 75
 -2.172885e+01 -2.367990e+00 -1.719222e+00 -1.234985e+00 -2.513264e-01 3.536167e+00 2.667140e+00 3.044168e+00 1.774141e+00 3.666687e+00 1.311791e+00 1.516909e+00 1.111213e+00 8.886443e-01 9.964174e-01 1.323443e+00 1.005097e+00 7.907587e-01 3.919987e-01 1.859623e-02 -4.560840e-02 -2.328305e-02 1.871287e-02 8.099361e-02 1.436049e+01 5.842406e-02 1.648892e-01 -1.266490e-01 1.477689e-01 -7.369436e-02 5.337304e-02 -5.132213e-02 -7.354765e-02 -1.174877e-02 -1.265793e-01 -2.960331e-02 -5.443774e-02 -8.951067e-02 -6.134104e-02 -6.792720e-02 -8.144300e-02 -4.937758e-02 -5.044726e-02 -4.497539e-02 -2.084577e-02 -1.014309e-02 -7.912202e-04 5.574597e-04 -3.037089e-03 -6.462520e-02 2.607552e-02 -4.677149e-02 -7.963576e-03 -7.389989e-02 -7.335790e-04 -2.628658e-02 5.827184e-02 2.409051e-02 3.427441e-02 2.235728e-02 4.349971e-02 4.381187e-02 5.413581e-02 1.139762e-01 1.050249e-01 7.964813e-02 3.862180e-02 2.178578e-02 2.491445e-02 2.850799e-02 1.529588e-02 5.263518e-03 -3.323567e-03 -6.341291e-03 5.825236e-02
<VARIANCE> 75
 1.833152e+00 7.860618e+00 9.755095e+00 1.005198e+01 9.585300e+00 8.628088e+00 7.758842e+00 7.963627e+00 8.119765e+00 7.511116e+00 6.277455e+00 6.039438e+00 5.325726e+00 4.415065e+00 3.120874e+00 2.221306e+00 1.658423e+00 1.224278e+00 6.133175e-01 3.357099e-01 1.001622e-01 1.966109e-02 5.798687e-03 7.266965e-02 3.291961e-01 9.639583e-02 3.027678e-01 3.426851e-01 4.685566e-01 5.192558e-01 6.304719e-01 6.261829e-01 7.833778e-01 7.143299e-01 6.112439e-01 5.685806e-01 5.686359e-01 5.059800e-01 4.572541e-01 3.603360e-01 2.699575e-01 1.870573e-01 1.195532e-01 6.228717e-02 3.549893e-02 1.216274e-02 2.022240e-03 6.293375e-04 7.990838e-03 2.290956e-02 2.202859e-02 6.544996e-02 6.854290e-02 9.685265e-02 1.114279e-01 1.277544e-01 1.239291e-01 1.605067e-01 1.433961e-01 1.301460e-01 1.176344e-01 1.162557e-01 1.053598e-01 7.294846e-02 6.009028e-02 4.675616e-02 3.277250e-02 2.256002e-02 1.234532e-02 7.089400e-03 2.267912e-03 3.954518e-04 1.195927e-04 1.482910e-03 6.229195e-03
<GCONST> 1.119565e+01
<MIXTURE> 15 6.740821e-02
<MEAN> 75
 -1.912998e+01 -5.910375e+00 1.329590e+00 -2.915516e+00 -2.008099e-03 5.629145e+00 5.110399e+00 4.845729e+00 2.666440e+00 5.418206e+00 2.825345e+00 3.186435e+00 2.334675e+00 1.741993e+00 1.216815e+00 1.755669e+00 1.237904e+00 1.032096e+00 1.042988e+00 5.494658e-01 2.447800e-01 7.196750e-02 -4.453829e-02 -4.557150e-02 1.754866e+01 4.634219e-02 2.510583e-02 4.648041e-02 2.679667e-01 3.859261e-02 1.954364e-02 -9.744125e-02 -8.039369e-02 -1.761315e-01 -3.022170e-01 -3.161665e-01 -2.402976e-01 -2.319913e-01 -2.702859e-01 -1.907345e-01 -1.822914e-01 -1.560943e-01 -1.170328e-01 -9.546507e-02 -7.585908e-02 -4.685197e-02 -1.502931e-02 6.334485e-03 9.760993e-03 -1.118252e-01 2.170759e-02 1.319039e-02 -8.295532e-03 -2.444544e-02 -2.670847e-02 -1.466326e-01 -1.599759e-01 -2.052273e-01 -2.011614e-01 -1.824657e-01 -1.194906e-01 -5.826727e-02 -2.021662e-02 7.303723e-03 1.625865e-02 -2.660051e-03 -5.548192e-03 -1.443307e-02 -3.582233e-02 -3.205932e-02 -2.587873e-02 -1.036676e-02 4.492579e-03 1.272474e-02 -3.789387e-02
<VARIANCE> 75
 1.597993e+01 2.330563e+01 3.118110e+01 2.017992e+01 1.258327e+01 1.086577e+01 1.016882e+01 1.037921e+01 8.301599e+00 8.469254e+00 8.463297e+00 6.598144e+00 5.400401e+00 4.524764e+00 4.029659e+00 2.884961e+00 2.066704e+00 1.458272e+00 8.410877e-01 3.704984e-01 1.332463e-01 2.027310e-02 6.678164e-03 8.830032e-02 3.703014e+00 2.899001e-01 3.735081e-01 5.467951e-01 6.063940e-01 6.070653e-01 5.588745e-01 6.485796e-01 7.062348e-01 7.037644e-01 5.727644e-01 6.121306e-01 5.726596e-01 5.401738e-01 4.357916e-01 3.499538e-01 2.535856e-01 1.925226e-01 1.314636e-01 6.808922e-02 3.762116e-02 1.289920e-02 1.812532e-03 6.471814e-04 8.424306e-03 6.540730e-02 5.159852e-02 8.211591e-02 1.085914e-01 1.162721e-01 1.260802e-01 1.083868e-01 1.366759e-01 1.425945e-01 1.502315e-01 1.353172e-01 1.401027e-01 1.242005e-01 1.105574e-01 8.215316e-02 7.491715e-02 5.934120e-02 3.888813e-02 2.467031e-02 1.488764e-02 7.618381e-03 2.715922e-03 3.985655e-04 1.389182e-04 1.775364e-03 1.356902e-02
<GCONST> 3.001950e+01
<MIXTURE> 16 4.310317e-02
<MEAN> 75
 -1.952775e+01 -7.605921e+00 -3.312401e-01 -5.699340e+00 2.650654e-02 1.100650e+00 2.005994e+00 1.260072e+00 -7.191687e-01 2.930423e+00 1.255005e+00 3.079817e+00 2.784422e+00 1.866679e+00 2.037644e+00 2.206220e+00 1.644232e+00 1.349491e+00 1.029661e+00 3.880482e-01 6.531692e-02 -6.296913e-02 -4.454454e-03 1.946327e-01 1.674156e+01 6.739610e-02 2.336270e-02 -1.902975e-01 1.599163e-01 -7.948619e-02 1.217661e-02 -1.510348e-01 -1.400307e-01 -2.929933e-01 -2.674574e-01 -1.782925e-01 -1.720882e-01 -1.770584e-01 -2.204076e-01 -1.492802e-01 -1.572238e-01 -1.145449e-01 -1.454360e-01 -1.382170e-01 -7.637487e-02 -3.701139e-02 -5.870560e-03 9.433627e-04 -5.645167e-03 -1.112533e-01 7.312941e-03 2.956197e-02 4.087447e-02 5.605439e-02 2.771701e-02 7.146874e-02 9.092090e-02 9.170610e-02 1.012153e-01 4.184997e-03 -6.165347e-02 -1.133623e-01 -1.346077e-01 -1.192360e-01 -1.346339e-01 -1.319053e-01 -1.284123e-01 -7.910991e-02 -5.507153e-02 -3.351441e-02 -1.024795e-02 6.954761e-04 -7.914830e-04 -5.047735e-03 -5.720275e-03
<VARIANCE> 75
 1.507604e+01 2.783158e+01 2.472325e+01 1.930453e+01 2.517599e+01 1.507433e+01 1.896302e+01 1.157099e+01 1.277930e+01 1.177396e+01 1.042609e+01 1.002284e+01 8.382972e+00 7.946204e+00 5.612927e+00 4.252644e+00 2.611444e+00 1.988966e+00 1.145847e+00 5.013689e-01 1.718093e-01 3.249426e-02 1.056232e-02 1.503645e-01 2.915357e+00 2.164682e-01 3.115985e-01 3.832898e-01 5.605250e-01 6.431333e-01 7.654480e-01 7.308615e-01 8.729528e-01 8.993502e-01 8.820407e-01 7.637552e-01 7.460206e-01 6.299928e-01 5.283921e-01 3.912665e-01 3.320437e-01 2.371617e-01 1.553071e-01 8.440006e-02 4.286663e-02 1.545865e-02 2.375215e-03 7.493050e-04 8.837307e-03 3.494267e-02 2.913595e-02 5.668938e-02 7.926899e-02 1.028728e-01 1.265073e-01 1.331217e-01 1.419065e-01 1.531513e-01 1.601741e-01 1.475516e-01 1.439361e-01 1.480826e-01 1.378238e-01 1.184969e-01 8.610189e-02 5.977352e-02 4.464425e-02 3.517587e-02 1.927225e-02 8.735835e-03 3.138464e-03 4.683379e-04 1.444225e-04 1.915028e-03 6.679707e-03
<GCONST> 4.040940e+01
~h "etc"
<BEGINHMM>
<NUMSTATES> 4
<STATE> 2
<NUMMIXES> 16
<MIXTURE> 1 7.482139e-02
<MEAN> 75
 -1.763208e+01 1.594226e+00 -3.010125e+00 9.600942e-01 9.783833e-01 6.396864e+00 6.144718e+00 5.413673e+00 3.408292e+00 5.825078e+00 6.143020e+00 4.309110e+00 2.902831e+00 4.343164e+00 3.607729e+00 2.612653e+00 2.409818e+00 1.692389e+00 1.094041e+00 8.695285e-01 3.264185e-01 8.537174e-02 -5.698899e-02 -3.292096e-02 1.839160e+01 1.052249e-02 3.376427e-02 -6.879214e-03 -3.487639e-02 -2.374640e-02 3.397387e-02 3.737641e-02 -6.280380e-03 -2.857800e-02 2.615761e-02 4.102321e-02 2.104627e-02 1.323360e-02 1.563359e-02 2.364051e-02 2.133375e-02 1.584271e-02 8.931613e-03 9.369162e-03 3.201650e-03 3.064042e-03 2.213820e-03 2.455098e-06 -4.111329e-03 -4.818912e-02 3.936396e-01 -2.039386e-01 -2.591222e-01 -4.250317e-01 -3.313756e-01 -8.735485e-02 8.863286e-02 -3.247343e-01 -5.609780e-01 -7.149923e-03 3.205528e-01 -2.294990e-01 -3.802187e-01 2.219284e-01 3.592416e-02 -2.150063e-01 1.568666e-02 -2.431751e-02 -5.150490e-02 5.624965e-02 -2.445152e-02 -1.049899e-02 -1.290034e-02 2.164315e-02 1.663469e-01
<VARIANCE> 75
 3.546737e+00 1.957924e+00 3.272358e+00 4.802129e+00 4.370600e+00 3.338241e+00 3.479275e+00 4.936275e+00 6.613476e+00 3.773411e+00 4.757281e+00 3.702504e+00 3.905131e+00 3.187051e+00 2.168407e+00 1.755639e+00 1.140079e+00 6.877318e-01 4.358714e-01 2.215641e-01 7.578225e-02 1.080833e-02 4.321307e-03 4.507576e-02 1.063157e+00 1.601649e-01 5.970402e-02 8.440007e-02 1.654541e-01 1.259179e-01 9.474087e-02 1.120334e-01 1.608211e-01 2.812732e-01 1.138144e-01 2.212276e-01 1.313484e-01 1.731525e-01 1.605204e-01 9.239849e-02 7.761948e-02 4.680398e-02 2.646729e-02 1.855769e-02 1.161521e-02 3.448328e-03 4.566899e-04 2.895216e-04 1.900263e-03 7.945866e-02 4.235874e-02 2.730485e-02 4.412530e-02 7.209608e-02 6.572701e-02 4.765323e-02 4.714930e-02 7.298268e-02 1.040221e-01 5.386879e-02 6.863029e-02 5.437331e-02 5.730907e-02 4.808519e-02 3.451668e-02 2.883195e-02 1.789732e-02 1.062377e-02 6.843965e-03 3.483413e-03 1.291121e-03 1.771184e-04 8.205344e-05 7.499422e-04 1.028851e-02
<GCONST> -4.169507e+01
<MIXTURE> 2 7.867318e-02
<MEAN> 75
 -1.597542e+01 3.638954e-01 -4.727351e+00 -1.519207e+00 -1.143792e+00 5.351188e+00 5.683616e+00 3.082616e+00 7.930905e-02 4.713317e+00 6.377371e+00 2.623991e+00 7.562943e-01 4.208063e+00 2.963059e+00 1.307687e+00 1.983930e+00 1.223433e+00 6.466985e-01 8.882139e-01 1.745645e-01 3.351278e-02 -8.270802e-02 5.545242e-02 1.804588e+01 5.466769e-01 -1.200949e-01 -3.330330e-01 -5.678006e-01 -4.180882e-01 2.014235e-02 3.335178e-01 -3.018716e-01 -6.437196e-01 2.579328e-01 7.951959e-01 -7.437478e-02 -3.115100e-01 5.357791e-01 2.451635e-01 -1.405057e-01 1.413542e-01 6.236097e-02 3.916090e-03 1.313531e-01 -3.222926e-03 -3.579584e-03 -2.121167e-02 1.970608e-02 3.288770e-01 1.251039e-02 -3.636415e-02 -2.592160e-03 -1.388197e-02 -6.365375e-03 -1.110326e-02 6.174622e-05 4.972442e-03 -9.378370e-03 2.552920e-02 4.518883e-02 1.350447e-03 -1.717288e-02 5.606323e-02 3.675748e-02 -5.184028e-04 1.745493e-02 1.261106e-02 4.750135e-03 1.266050e-02 -2.002669e-03 -2.119821e-03 -2.487725e-03 4.728058e-03 5.496594e-02
<VARIANCE> 75
 2.896451e+00 1.824402e+00 1.785220e+00 2.384018e+00 2.009526e+00 1.961253e+00 2.101880e+00 2.781966e+00 4.047742e+00 2.280048e+00 3.197000e+00 2.546678e+00 2.823412e+00 2.086089e+00 1.561076e+00 1.481480e+00 8.169992e-01 4.962907e-01 3.646384e-01 1.667091e-01 6.265859e-02 8.911377e-03 3.475297e-03 3.746136e-02 1.318366e+00 2.462641e-01 1.505904e-01 1.994572e-01 2.989575e-01 2.665808e-01 2.407508e-01 2.875012e-01 3.472869e-01 4.995922e-01 3.294756e-01 4.535626e-01 3.168229e-01 3.057170e-01 3.221909e-01 2.160845e-01 1.703371e-01 1.122153e-01 6.715523e-02 4.147747e-02 2.452098e-02 7.707629e-03 1.050955e-03 4.707380e-04 4.133211e-03 7.897777e-02 2.626661e-02 1.314783e-02 1.819367e-02 2.937976e-02 2.902325e-02 3.539412e-02 3.935302e-02 4.850747e-02 6.416342e-02 4.476397e-02 6.110684e-02 4.637222e-02 4.236926e-02 4.143346e-02 3.053962e-02 2.605757e-02 1.634871e-02 1.005207e-02 7.135249e-03 3.501118e-03 1.188785e-03 1.630391e-04 7.113274e-05 6.810867e-04 1.521590e-02
<GCONST> -3.820341e+01
<MIXTURE> 3 4.872259e-02
<MEAN> 75
 -1.395917e+01 6.030042e-01 -4.331913e+00 -1.580406e+00 -7.579048e-01 6.803871e+00 8.022202e+00 3.782285e+00 -1.913524e-01 6.846081e+00 9.764207e+00 3.236333e+00 4.972859e-01 6.827626e+00 4.538630e+00 1.345863e+00 2.895615e+00 1.791250e+00 8.986545e-01 1.465365e+00 1.919690e-01 2.461270e-02 -1.721818e-01 1.201131e-01 2.051962e+01 -2.410862e-01 1.007656e-01 1.576990e-01 2.922167e-01 2.282167e-01 1.078248e-03 -1.116535e-01 1.905242e-01 3.637105e-01 -2.260999e-02 -2.551935e-01 1.465522e-01 2.567718e-01 -1.627589e-01 -4.740083e-02 1.243291e-01 -1.415669e-02 4.441793e-03 2.326945e-02 -4.254802e-02 1.573529e-02 6.332924e-03 8.956525e-03 -1.340290e-02 -6.565957e-02 -2.382193e-01 1.202812e-01 1.311930e-01 2.286674e-01 1.700295e-01 2.293545e-02 -9.886003e-02 1.577923e-01 3.088830e-01 -4.438944e-02 -2.460613e-01 1.159251e-01 2.222848e-01 -1.858884e-01 -6.070269e-02 1.191494e-01 -3.040466e-02 -2.494215e-04 2.500227e-02 -4.427736e-02 1.418873e-02 6.895487e-03 9.660705e-03 -1.646609e-02 -1.614615e-01
<VARIANCE> 75
 4.933067e-01 4.595375e-01 3.584264e-01 5.604820e-01 5.039244e-01 5.199211e-01 5.240559e-01 7.586272e-01 1.086700e+00 5.260174e-01 7.594317e-01 7.247161e-01 8.890482e-01 5.623176e-01 3.487042e-01 3.497535e-01 2.117182e-01 1.108593e-01 8.357966e-02 5.053509e-02 1.586739e-02 2.308487e-03 1.235332e-03 9.029186e-03 1.197492e+00 1.535870e-01 8.085472e-02 1.225885e-01 2.436991e-01 1.667786e-01 1.013395e-01 1.346716e-01 1.642372e-01 3.505373e-01 1.147809e-01 2.566418e-01 1.599257e-01 2.070979e-01 1.372172e-01 7.887012e-02 9.018246e-02 3.949909e-02 2.583641e-02 1.776776e-02 1.121636e-02 3.238537e-03 4.188856e-04 2.722918e-04 1.716053e-03 8.740586e-02 3.450989e-02 1.736413e-02 2.363486e-02 4.711723e-02 3.647712e-02 2.137561e-02 2.528079e-02 3.877868e-02 6.942705e-02 2.516420e-02 4.459248e-02 2.711498e-02 4.113031e-02 2.855966e-02 1.685688e-02 1.764625e-02 8.424532e-03 5.096545e-03 3.632015e-03 2.088216e-03 6.295514e-04 9.096684e-05 5.244129e-05 3.625211e-04 9.205301e-03
<GCONST> -9.598308e+01
<MIXTURE> 4 8.030245e-02
<MEAN> 75
 -1.475899e+01 -8.174192e+00 -1.579345e+01 -9.500810e+00 -2.587095e+00 4.790730e+00 1.454862e+00 2.696934e+00 2.648622e+00 2.220129e+00 -1.672969e+00 -3.461052e+00 1.721303e+00 7.550606e+00 6.792281e+00 4.400724e+00 1.546741e+00 -9.567884e-02 -6.646996e-01 -1.252622e+00 -6.344084e-01 -4.295940e-02 -1.630288e-02 -3.307220e-01 1.784760e+01 -2.822818e-02 7.788238e-02 6.265687e-02 4.069832e-02 -2.413433e-02 -2.381989e-02 -1.204335e-03 -1.550220e-02 4.008439e-02 3.240204e-02 -1.620538e-02 1.348611e-02 4.142648e-03 -6.356865e-03 1.373144e-02 2.321173e-03 -1.139645e-02 -1.368080e-02 -4.986892e-03 9.739806e-03 4.080128e-03 1.934417e-03 -1.036750e-03 5.044190e-04 -2.433649e-02 -3.823648e-03 2.689555e-03 5.287816e-03 5.750491e-03 4.852141e-03 1.415043e-03 3.292798e-03 -3.415522e-04 2.658841e-03 6.763062e-03 4.389292e-03 1.979708e-03 6.953324e-04 -5.952640e-03 -7.804854e-03 -4.326226e-03 2.389214e-03 5.317555e-03 3.609530e-03 2.347187e-03 1.368099e-03 2.044813e-04 8.995829e-05 1.535893e-04 -2.618389e-03
<VARIANCE> 75
 4.833547e+00 2.690860e+01 1.052363e+01 1.756309e+01 3.208300e+01 2.190568e+01 1.787038e+01 2.014350e+01 2.085613e+01 1.866831e+01 2.487453e+01 2.549326e+01 3.728002e+01 3.259139e+01 1.716661e+01 1.444457e+01 1.290214e+01 1.023668e+01 3.446828e+00 1.367871e+00 1.019033e+00 1.755273e-01 2.362217e-02 5.397750e-01 2.994435e+00 2.771154e-01 3.808993e-01 3.355716e-01 5.378718e-01 7.784207e-01 8.925995e-01 1.033220e+00 1.142765e+00 1.097229e+00 9.423010e-01 1.171811e+00 1.095864e+00 1.093905e+00 1.012706e+00 6.138899e-01 4.879817e-01 2.438011e-01 1.891608e-01 9.722457e-02 5.613117e-02 1.841330e-02 2.671723e-03 8.424781e-04 1.298059e-02 4.242556e-02 5.806684e-02 7.050672e-02 6.240094e-02 1.036323e-01 1.518996e-01 1.740183e-01 2.035885e-01 2.230228e-01 2.128937e-01 1.889257e-01 2.235841e-01 2.145698e-01 2.131517e-01 1.976355e-01 1.145111e-01 9.727544e-02 4.556193e-02 3.472302e-02 1.734395e-02 1.084583e-02 3.399464e-03 4.797766e-04 1.603321e-04 2.433640e-03 6.846040e-03
<GCONST> 6.980672e+01
<MIXTURE> 5 5.608127e-02
<MEAN> 75
 -1.400513e+01 -1.058825e+00 -5.827121e+00 -3.649443e+00 -2.831134e+00 4.620039e+00 6.101413e+00 1.383764e+00 -2.914475e+00 4.849315e+00 8.341075e+00 1.162920e+00 -1.804675e+00 5.927354e+00 3.421676e+00 -1.136038e-01 2.220850e+00 1.159432e+00 3.231674e-01 1.332284e+00 -6.979508e-03 -6.029084e-02 -1.891017e-01 2.619908e-01 2.026562e+01 -2.733059e-01 1.578898e-01 1.153331e-01 2.510859e-01 1.865204e-01 5.912625e-02 -6.088650e-02 2.040153e-01 3.717301e-01 2.226742e-03 -2.168908e-01 1.760975e-01 3.111612e-01 -1.703438e-01 -2.113246e-02 1.620042e-01 -1.591432e-02 1.189276e-02 4.341511e-02 -4.293601e-02 2.355511e-02 1.078041e-02 1.101487e-02 -2.361815e-02 -2.056060e-01 -6.396991e-02 5.065810e-02 3.292963e-02 5.794683e-02 4.373436e-02 2.361320e-02 -1.377494e-02 4.642924e-02 8.399457e-02 3.909100e-03 -5.133154e-02 4.119176e-02 7.029586e-02 -4.717799e-02 -9.041656e-03 4.060115e-02 -8.668403e-03 2.989456e-03 1.317614e-02 -1.231923e-02 5.412736e-03 2.820160e-03 3.266384e-03 -6.763803e-03 -8.287125e-02
<VARIANCE> 75
 8.486535e-02 1.331303e-01 1.221751e-01 2.285441e-01 2.177059e-01 3.055599e-01 2.843330e-01 3.773279e-01 4.189669e-01 3.154518e-01 3.721530e-01 3.833845e-01 3.962677e-01 2.825347e-01 2.227426e-01 1.867990e-01 1.339425e-01 7.994667e-02 5.211456e-02 2.390168e-02 9.573900e-03 1.254482e-03 5.659435e-04 4.671720e-03 1.188033e+00 1.348083e-01 9.601783e-02 8.684090e-02 1.917897e-01 1.566172e-01 1.081953e-01 9.450775e-02 1.993884e-01 3.725751e-01 1.115179e-01 1.833071e-01 1.773239e-01 2.577473e-01 1.203857e-01 7.865253e-02 1.125143e-01 4.384296e-02 2.620685e-02 2.184708e-02 9.409629e-03 3.779808e-03 5.521924e-04 3.029615e-04 2.197065e-03 8.203915e-02 1.657387e-02 9.003113e-03 9.835263e-03 1.943747e-02 1.472148e-02 1.371287e-02 1.586558e-02 2.028655e-02 3.539063e-02 1.587917e-02 2.819592e-02 1.825610e-02 2.457240e-02 1.982296e-02 1.105423e-02 1.116635e-02 6.228460e-03 3.560797e-03 2.586021e-03 1.538082e-03 4.844228e-04 6.172289e-05 4.219639e-05 2.644654e-04 1.866461e-02
<GCONST> -1.244622e+02
<MIXTURE> 6 6.575587e-02
<MEAN> 75
 -1.396112e+01 -7.546479e-01 -2.616152e+00 1.743756e+00 4.327847e-01 5.726880e+00 4.484991e+00 3.603486e+00 9.000978e-01 1.831779e+00 2.334316e+00 1.685415e+00 2.443306e-01 1.009915e+00 8.332799e-01 6.323038e-01 6.476296e-01 5.099519e-01 2.644507e-01 1.343597e-01 -1.124845e-01 -6.251289e-02 1.143710e-02 1.308619e-01 1.820253e+01 -3.915071e-02 7.307240e-02 -7.143270e-02 9.178461e-03 -1.649762e-02 -6.578205e-02 1.798019e-02 -2.909626e-02 3.071716e-03 7.809645e-03 2.574634e-02 5.236045e-02 3.032582e-02 4.386610e-02 3.576358e-02 2.710657e-02 4.720011e-02 2.165186e-02 -8.363077e-03 1.332905e-02 2.718745e-03 -4.980420e-04 3.292310e-04 -1.362696e-03 -4.406101e-02 -8.297211e-04 -5.330665e-02 -1.504114e-01 -3.020036e-01 -1.801175e-01 -3.858802e-02 1.366123e-01 -5.250122e-02 -1.348943e-01 2.599596e-01 4.283192e-01 8.638181e-02 -1.344225e-02 3.492955e-01 2.153199e-01 2.722619e-02 1.289060e-01 6.648058e-02 2.682762e-02 8.700658e-02 2.053110e-02 5.369371e-03 -1.288761e-02 5.308044e-03 1.435326e-01
<VARIANCE> 75
 6.433598e+00 1.878516e+01 7.879992e+00 5.882364e+00 5.793162e+00 6.056367e+00 8.672592e+00 8.265140e+00 7.880415e+00 7.554060e+00 7.743072e+00 6.063150e+00 5.958220e+00 4.638872e+00 3.452419e+00 2.721862e+00 1.898077e+00 1.277468e+00 7.325557e-01 3.724976e-01 1.186861e-01 1.863024e-02 6.972017e-03 8.254442e-02 2.287998e+00 1.011396e-01 2.413736e-01 2.359129e-01 3.710631e-01 3.063188e-01 3.450714e-01 4.853351e-01 4.569998e-01 5.267343e-01 5.394322e-01 7.666931e-01 3.900885e-01 4.167291e-01 5.121061e-01 3.015395e-01 2.351498e-01 1.635452e-01 8.825360e-02 5.851173e-02 3.914314e-02 1.076660e-02 1.433870e-03 8.218124e-04 5.924987e-03 1.077272e-01 3.927679e-02 9.597376e-02 6.633431e-02 7.694250e-02 7.724673e-02 8.826960e-02 1.208494e-01 1.147853e-01 1.345183e-01 1.078411e-01 1.342513e-01 8.493324e-02 1.042795e-01 8.151159e-02 5.790944e-02 4.618369e-02 3.301865e-02 2.001955e-02 1.255812e-02 6.932501e-03 2.235462e-03 3.415518e-04 1.411092e-04 1.612529e-03 1.786515e-02
<GCONST> 1.262241e+01
<MIXTURE> 7 5.253405e-02
<MEAN> 75
 -1.587835e+01 1.270705e+00 -3.912577e+00 -4.873443e-01 1.182070e-01 6.843378e+00 7.292950e+00 4.784440e+00 1.846850e+00 6.517732e+00 8.141423e+00 4.246410e+00 2.338254e+00 5.612753e+00 4.159904e+00 2.312923e+00 2.723630e+00 1.814849e+00 1.092517e+00 1.137494e+00 3.252383e-01 8.448627e-02 -9.915097e-02 -2.389703e-02 1.919399e+01 -2.140001e-01 5.285718e-02 6.521545e-02 1.324460e-01 8.714324e-02 -3.563417e-02 -1.316383e-01 8.865396e-02 1.797429e-01 -6.906596e-02 -2.041146e-01 3.686859e-02 1.098161e-01 -1.486600e-01 -6.351457e-02 4.304765e-02 -3.826329e-02 -1.898990e-02 -3.671522e-03 -3.874797e-02 2.444017e-03 1.545218e-03 6.368548e-03 -6.701933e-03 -1.302718e-01 -1.389178e-01 1.656782e-02 6.008769e-02 8.456005e-02 5.157029e-02 -3.721691e-02 -9.137950e-02 2.465008e-02 9.118903e-02 -5.903986e-02 -1.587003e-01 -1.188704e-03 3.399190e-02 -1.159406e-01 -6.051881e-02 1.485092e-02 -3.370510e-02 -1.231577e-02 -3.812527e-03 -2.563636e-02 -2.553046e-03 5.461693e-05 3.563454e-03 -1.056347e-03 -9.194753e-02
<VARIANCE> 75
 1.626757e+00 9.988177e-01 1.182956e+00 1.408579e+00 1.234489e+00 1.175432e+00 1.495415e+00 1.762409e+00 1.969211e+00 1.408210e+00 1.880166e+00 1.542030e+00 1.567287e+00 1.186200e+00 8.237638e-01 7.530906e-01 4.713587e-01 3.187812e-01 2.183634e-01 1.099223e-01 3.524602e-02 4.217309e-03 1.938216e-03 1.801170e-02 8.085446e-01 2.274804e-01 5.904638e-02 1.065538e-01 1.655924e-01 1.435268e-01 1.255844e-01 1.955561e-01 1.849240e-01 2.822881e-01 1.917639e-01 3.777162e-01 1.680325e-01 1.977001e-01 2.335498e-01 1.293906e-01 9.417923e-02 6.096628e-02 3.756581e-02 2.504109e-02 1.633928e-02 4.188286e-03 6.301396e-04 3.546758e-04 2.468727e-03 1.186297e-01 4.551296e-02 1.517610e-02 2.317710e-02 4.415128e-02 3.497031e-02 2.472043e-02 3.331284e-02 4.234942e-02 7.849448e-02 3.412993e-02 6.650445e-02 4.188578e-02 4.855322e-02 4.048223e-02 2.462804e-02 2.243441e-02 1.275858e-02 8.401945e-03 5.849371e-03 3.307091e-03 9.115004e-04 1.281858e-04 7.513627e-05 4.837793e-04 1.618781e-02
<GCONST> -6.468224e+01
<MIXTURE> 8 4.814161e-02
<MEAN> 75
 -1.428766e+01 -2.931677e-03 -5.065722e+00 -2.453861e+00 -1.704525e+00 5.880000e+00 7.070258e+00 2.800061e+00 -1.223685e+00 5.966371e+00 8.994700e+00 2.462770e+00 -2.028917e-01 6.294993e+00 4.042467e+00 9.143522e-01 2.617289e+00 1.580040e+00 7.439321e-01 1.394815e+00 1.438811e-01 7.592187e-03 -1.683677e-01 1.404024e-01 1.964803e+01 4.871563e-01 -2.520154e-01 -2.718714e-01 -4.965930e-01 -3.630430e-01 -5.571301e-02 1.824666e-01 -3.440356e-01 -6.356999e-01 7.060785e-02 4.816585e-01 -2.419503e-01 -4.570501e-01 3.736382e-01 1.215353e-01 -2.353981e-01 5.941802e-02 4.706122e-03 -4.037561e-02 9.439702e-02 -3.000142e-02 -1.400311e-02 -2.014759e-02 3.084164e-02 3.095182e-01 -1.108361e-01 4.193529e-02 7.695615e-02 1.173543e-01 8.594221e-02 -1.255646e-02 -6.641213e-02 6.525346e-02 1.414016e-01 -5.084578e-02 -1.454291e-01 3.495404e-02 8.449705e-02 -1.007204e-01 -4.218922e-02 3.904320e-02 -2.711227e-02 -1.367704e-02 -2.464047e-04 -2.761975e-02 3.021431e-03 1.337047e-03 4.423184e-03 -3.684391e-03 -2.060954e-02
<VARIANCE> 75
 4.297113e-01 5.324579e-01 3.907809e-01 4.888788e-01 4.836817e-01 6.221014e-01 5.920790e-01 7.976480e-01 8.777332e-01 6.059102e-01 7.598271e-01 7.196483e-01 8.606327e-01 5.591649e-01 4.313636e-01 4.105738e-01 2.417613e-01 1.440371e-01 1.084097e-01 4.961778e-02 1.891618e-02 2.952667e-03 1.171484e-03 1.060339e-02 6.625587e-01 1.811033e-01 9.561324e-02 1.478881e-01 2.815434e-01 2.284645e-01 1.216334e-01 1.323812e-01 2.310786e-01 4.087847e-01 1.541372e-01 2.505211e-01 1.659337e-01 2.376232e-01 1.479211e-01 8.077544e-02 1.000145e-01 4.383912e-02 2.885738e-02 2.059644e-02 1.055515e-02 3.771276e-03 5.334249e-04 2.673996e-04 1.941627e-03 6.081271e-02 3.367755e-02 1.587721e-02 1.795252e-02 3.684762e-02 2.763778e-02 2.136039e-02 2.177900e-02 3.532710e-02 6.327361e-02 2.197580e-02 4.340319e-02 2.798260e-02 3.949718e-02 2.732156e-02 1.608804e-02 1.782113e-02 7.634594e-03 4.832904e-03 3.742600e-03 2.350988e-03 6.204681e-04 9.570336e-05 6.418411e-05 3.916171e-04 1.955890e-02
<GCONST> -9.259226e+01
<MIXTURE> 9 7.990395e-02
<MEAN> 75
 -1.373395e+01 -4.912833e+00 1.822650e-02 -3.924060e+00 -2.387249e+00 1.990264e+00 2.215986e+00 1.162354e+00 -1.398904e+00 5.875420e-01 -1.582689e+00 -3.788717e-01 -1.338961e+00 -1.302362e+00 -1.178624e+00 -3.583672e-01 -3.796405e-01 -3.132310e-01 -1.771749e-01 -2.526154e-01 -2.240023e-01 -8.134161e-02 1.828393e-02 8.363286e-02 1.783104e+01 -2.724182e-02 1.162142e-01 -2.613769e-01 2.117373e-01 -1.101440e-01 1.312548e-01 -5.671133e-02 7.389939e-02 -3.489437e-02 -2.349524e-02 1.336720e-02 9.353248e-03 8.247818e-02 2.339817e-02 7.575486e-02 4.979429e-02 5.089815e-02 2.273054e-02 2.411043e-03 1.387000e-02 5.808822e-03 1.117138e-03 -5.471322e-04 -1.276136e-03 -1.223834e-01 -3.253857e-02 -4.075332e-03 -4.431765e-03 7.876220e-03 5.276824e-03 -1.917150e-02 2.446296e-02 -6.701893e-03 3.661311e-02 4.345449e-02 8.446244e-02 7.739823e-02 1.034071e-01 1.090224e-01 7.000735e-02 6.251298e-02 5.345759e-02 3.829211e-02 2.681608e-02 1.767265e-02 5.394256e-03 7.827819e-04 -5.969830e-04 -4.314495e-04 1.324246e-02
<VARIANCE> 75
 9.354197e+00 4.412152e+01 2.083538e+01 3.034673e+01 1.735432e+01 1.628790e+01 1.308755e+01 1.513352e+01 1.334367e+01 1.194629e+01 1.083704e+01 8.835385e+00 7.690036e+00 5.465060e+00 4.526706e+00 3.317084e+00 2.195947e+00 1.451550e+00 9.545569e-01 4.635030e-01 1.617693e-01 2.409410e-02 6.844016e-03 9.381232e-02 3.353029e+00 1.433229e-01 2.502382e-01 3.797431e-01 4.569037e-01 5.500218e-01 7.026856e-01 7.455269e-01 7.633595e-01 7.256448e-01 6.673260e-01 6.895447e-01 6.483058e-01 6.643800e-01 5.519844e-01 3.768345e-01 3.002674e-01 2.284401e-01 1.566406e-01 9.023046e-02 4.590967e-02 1.565351e-02 2.216485e-03 7.284373e-04 9.072970e-03 2.751764e-02 2.317277e-02 4.297624e-02 7.109601e-02 8.169903e-02 1.042978e-01 1.273312e-01 1.473892e-01 1.471843e-01 1.482884e-01 1.423622e-01 1.378597e-01 1.361242e-01 1.295886e-01 1.053359e-01 7.046731e-02 5.941072e-02 4.311997e-02 3.070201e-02 1.733483e-02 9.062200e-03 3.314444e-03 4.628950e-04 1.478300e-04 1.857291e-03 5.551968e-03
<GCONST> 3.317865e+01
<MIXTURE> 10 6.531105e-02
<MEAN> 75
 -1.491469e+01 -5.487345e-01 -5.765424e+00 -3.085206e+00 -2.502071e+00 4.736295e+00 5.764257e+00 1.874598e+00 -1.992233e+00 4.715096e+00 7.654286e+00 1.673607e+00 -7.965502e-01 5.273627e+00 3.233069e+00 4.723473e-01 2.097327e+00 1.159836e+00 4.594546e-01 1.131587e+00 6.425981e-02 -2.050867e-02 -1.396563e-01 1.545196e-01 1.865231e+01 -8.030441e-01 3.131922e-01 4.754058e-01 8.064631e-01 6.250001e-01 8.244820e-02 -2.956405e-01 5.268931e-01 1.007615e+00 -1.470625e-01 -8.310965e-01 2.956381e-01 6.152816e-01 -5.772297e-01 -2.055773e-01 3.328972e-01 -9.400101e-02 9.868143e-03 6.849491e-02 -1.391114e-01 2.477038e-02 1.482548e-02 2.704353e-02 -3.805434e-02 -4.055433e-01 -5.641165e-02 3.567144e-02 5.501237e-02 6.770275e-02 6.843293e-02 4.547250e-02 2.141431e-02 6.745313e-02 1.159942e-01 3.120828e-02 -3.772515e-02 5.657636e-02 6.917961e-02 -2.888431e-02 7.190493e-03 4.267881e-02 9.081725e-03 1.510677e-02 1.392269e-02 -5.249038e-03 5.057711e-03 2.854950e-03 1.526840e-03 -3.453261e-03 -1.819036e-02
<VARIANCE> 75
 8.950043e-01 7.179019e-01 5.582937e-01 9.466701e-01 9.127247e-01 1.096964e+00 1.233795e+00 1.587335e+00 1.785412e+00 1.417954e+00 1.751812e+00 1.311591e+00 1.479011e+00 1.422707e+00 9.146128e-01 8.584164e-01 5.082115e-01 3.038982e-01 1.976727e-01 1.125994e-01 3.715680e-02 5.146801e-03 2.558705e-03 2.138895e-02 1.248356e+00 2.674955e-01 1.681958e-01 2.802408e-01 4.100598e-01 3.391531e-01 2.851260e-01 3.275827e-01 4.213893e-01 5.781983e-01 3.571972e-01 4.397168e-01 3.234170e-01 3.560157e-01 2.915356e-01 2.089176e-01 1.818040e-01 1.165682e-01 7.037137e-02 4.232565e-02 2.342313e-02 7.211735e-03 1.050585e-03 4.433947e-04 4.710529e-03 4.628710e-02 3.915592e-02 1.722633e-02 2.629696e-02 5.029229e-02 4.059575e-02 2.996046e-02 3.771270e-02 5.392647e-02 8.076265e-02 4.220699e-02 6.536525e-02 4.282328e-02 4.706002e-02 4.921545e-02 2.842258e-02 2.473722e-02 1.571774e-02 9.483541e-03 5.732732e-03 3.378977e-03 1.037001e-03 1.449634e-04 7.491327e-05 5.760845e-04 1.680430e-02
<GCONST> -5.058152e+01
<MIXTURE> 11 6.707905e-02
<MEAN> 75
 -1.322856e+01 -3.248583e-01 -3.366782e+00 -5.834684e-01 -8.210105e-01 5.834466e+00 5.984652e+00 2.894218e+00 -6.637890e-01 4.024111e+00 6.005363e+00 1.654572e+00 -8.376718e-01 3.541835e+00 1.961136e+00 4.738035e-02 1.292657e+00 6.101981e-01 9.693673e-02 7.550058e-01 -4.460942e-02 -5.779092e-02 -9.829082e-02 2.400843e-01 1.974602e+01 -6.197925e-02 -3.151627e-02 1.415275e-01 1.669642e-01 1.188450e-01 -8.593260e-02 -1.868587e-01 -8.890835e-03 8.241851e-02 -2.200910e-01 -3.769365e-01 -8.417708e-02 3.566470e-02 -2.225322e-01 -1.314591e-01 -4.314594e-03 -1.151599e-01 -5.837581e-02 -9.410128e-03 -6.733779e-02 -1.004350e-02 1.437612e-03 7.756727e-03 -6.990078e-03 -9.035552e-02 -4.122194e-02 -3.656400e-02 1.168792e-01 1.214975e-01 6.081945e-02 -7.326344e-02 -2.031033e-01 1.341975e-02 1.206079e-01 -1.478697e-01 -2.674991e-01 5.047560e-02 1.537346e-01 -1.449722e-01 -3.674923e-02 9.411407e-02 -2.414890e-02 1.792315e-02 3.570259e-02 -4.075071e-02 7.688725e-04 2.831544e-03 7.691947e-03 -1.295557e-02 -1.028410e-01
<VARIANCE> 75
 2.620707e+00 7.677819e+00 4.284782e+00 4.408859e+00 3.583155e+00 4.123332e+00 4.574952e+00 5.487321e+00 6.261362e+00 4.033081e+00 5.056171e+00 4.392667e+00 5.019182e+00 3.732065e+00 2.322726e+00 2.216153e+00 1.294258e+00 8.818606e-01 5.186239e-01 2.613157e-01 8.950847e-02 1.294937e-02 5.807915e-03 4.604565e-02 1.865347e+00 2.413049e-01 5.459990e-01 6.997219e-01 7.069138e-01 4.837418e-01 5.624586e-01 8.411601e-01 5.917767e-01 8.636022e-01 6.897632e-01 1.021792e+00 4.727204e-01 5.166215e-01 7.021824e-01 3.682871e-01 2.522725e-01 1.996319e-01 1.076467e-01 6.519896e-02 5.131738e-02 1.206854e-02 1.823592e-03 9.878292e-04 7.184609e-03 1.382877e-01 4.006967e-02 8.446286e-02 8.397641e-02 9.662220e-02 7.477289e-02 8.614539e-02 1.192005e-01 9.632387e-02 1.350046e-01 9.675272e-02 1.367534e-01 8.070422e-02 8.491819e-02 8.992667e-02 5.415430e-02 4.414517e-02 3.195639e-02 2.019089e-02 1.167398e-02 6.918728e-03 2.167670e-03 3.150723e-04 1.312308e-04 1.148317e-03 1.625148e-02
<GCONST> 1.033666e+01
<MIXTURE> 12 5.525365e-02
<MEAN> 75
 -1.583159e+01 -3.536823e+00 -4.194531e+00 3.423026e-02 -8.688796e-01 4.600357e+00 4.209415e+00 3.745547e+00 9.111647e-01 2.202620e+00 2.859753e+00 3.019906e+00 1.813546e+00 2.277178e+00 2.118375e+00 1.630685e+00 1.216826e+00 9.425861e-01 5.877428e-01 3.226816e-01 7.675227e-03 -4.371181e-03 -1.201128e-02 8.115890e-02 1.735150e+01 -4.536873e-03 1.618081e-01 -9.714006e-02 2.072965e-02 7.516357e-02 4.537739e-02 1.564753e-01 7.389296e-02 7.692561e-02 1.704107e-01 1.588340e-01 9.592189e-03 -3.522132e-04 1.396398e-01 1.196578e-01 5.054420e-02 8.343925e-02 5.877968e-02 3.789976e-02 4.862790e-02 1.638353e-02 3.049401e-03 -3.762223e-03 4.530258e-03 4.228665e-02 2.890535e-03 1.820868e-02 4.106160e-02 -9.607280e-03 2.820053e-02 5.588533e-02 4.839707e-02 3.045582e-02 4.122010e-02 8.038697e-02 4.844472e-02 -2.682254e-02 -5.953024e-02 -1.315159e-02 -2.443977e-02 -8.600878e-03 1.868950e-02 1.419767e-02 1.971694e-02 2.412196e-02 1.062671e-02 2.283362e-03 -1.505620e-03 1.693564e-03 4.097090e-02
<VARIANCE> 75
 8.299451e+00 1.644225e+01 1.364999e+01 7.970364e+00 7.452293e+00 7.402343e+00 8.556510e+00 9.104288e+00 8.000106e+00 7.774656e+00 7.888122e+00 6.321631e+00 4.756318e+00 4.462477e+00 3.360862e+00 2.604920e+00 2.254063e+00 1.398677e+00 7.634422e-01 4.065861e-01 1.376282e-01 2.048383e-02 7.150859e-03 7.532755e-02 3.179396e+00 1.415239e-01 2.777717e-01 2.834217e-01 3.784530e-01 4.132849e-01 4.642860e-01 5.828921e-01 6.204653e-01 6.522171e-01 6.858220e-01 7.571560e-01 5.186951e-01 5.139028e-01 5.060301e-01 3.347223e-01 2.569313e-01 1.789010e-01 1.243747e-01 7.871945e-02 3.900901e-02 1.456720e-02 1.995292e-03 7.526387e-04 8.010737e-03 9.320862e-02 1.122558e-02 2.837836e-02 3.302284e-02 4.443966e-02 5.464496e-02 6.950910e-02 8.215787e-02 9.775168e-02 9.221154e-02 9.314431e-02 8.579840e-02 8.614039e-02 7.803050e-02 6.610844e-02 5.123296e-02 4.181378e-02 2.971776e-02 1.864639e-02 1.311577e-02 6.299640e-03 2.315087e-03 3.029118e-04 1.122547e-04 1.345333e-03 9.826911e-03
<GCONST> 1.125926e+01
<MIXTURE> 13 6.860934e-02
<MEAN> 75
 -1.498235e+01 -5.689987e-01 -5.759928e+00 -3.096256e+00 -2.564417e+00 4.700358e+00 5.672728e+00 1.830165e+00 -1.851474e+00 4.780332e+00 7.497075e+00 1.744217e+00 -6.898897e-01 5.196182e+00 3.365147e+00 6.310521e-01 2.106030e+00 1.247860e+00 5.505021e-01 1.125502e+00 7.138155e-02 -1.013460e-02 -1.354984e-01 1.486887e-01 1.850936e+01 -9.532094e-03 1.486406e-02 -2.975147e-02 -4.499153e-02 -4.866929e-02 -4.726120e-02 -4.088815e-02 -3.957932e-02 -6.177956e-02 -4.419902e-02 -2.393472e-02 -4.909071e-02 -5.543883e-02 -3.979960e-02 -4.520411e-02 -3.836945e-02 -2.861211e-02 -2.482320e-02 -2.044644e-02 -6.935854e-03 -2.554947e-03 -3.109480e-03 5.112874e-05 3.279797e-03 -1.814131e-02 -2.030926e-01 4.330923e-02 1.376481e-01 2.255035e-01 1.658529e-01 -8.378329e-03 -1.252452e-01 1.157276e-01 2.376529e-01 -1.300101e-01 -3.256787e-01 1.837972e-02 1.103274e-01 -2.286670e-01 -1.170773e-01 4.640840e-02 -5.634221e-02 -3.091283e-02 -7.841051e-03 -5.351407e-02 -3.114738e-04 6.929699e-04 8.882937e-03 -4.863361e-03 -1.311331e-01
<VARIANCE> 75
 1.258904e+00 9.641564e-01 8.949028e-01 1.161624e+00 9.832483e-01 1.438607e+00 1.520995e+00 1.730440e+00 2.115873e+00 1.831667e+00 2.278636e+00 1.816970e+00 2.200108e+00 1.678707e+00 1.184466e+00 1.074000e+00 7.129335e-01 4.108877e-01 2.995752e-01 1.386650e-01 4.397031e-02 6.971522e-03 2.800772e-03 2.923328e-02 1.568450e+00 1.608407e-01 9.511368e-02 1.441637e-01 2.347003e-01 2.107484e-01 2.229568e-01 2.804250e-01 3.349252e-01 4.492376e-01 3.288642e-01 4.259190e-01 3.275729e-01 3.243370e-01 3.006617e-01 2.177246e-01 1.795370e-01 1.124935e-01 7.376781e-02 4.757654e-02 2.516144e-02 7.621513e-03 1.069066e-03 4.540538e-04 4.048026e-03 6.596541e-02 4.070805e-02 2.696626e-02 3.485067e-02 4.959228e-02 4.209818e-02 5.038355e-02 6.171870e-02 6.862995e-02 8.491950e-02 6.449334e-02 8.818212e-02 5.738137e-02 5.984458e-02 5.752730e-02 4.360629e-02 3.464209e-02 2.439397e-02 1.487971e-02 8.674904e-03 4.919182e-03 1.453596e-03 2.078588e-04 9.170664e-05 8.424062e-04 1.408720e-02
<GCONST> -4.044211e+01
<MIXTURE> 14 6.072359e-02
<MEAN> 75
 -1.818277e+01 1.209620e+00 -4.144475e+00 -4.441047e-02 2.188611e-01 5.710710e+00 5.649959e+00 4.796646e+00 2.712340e+00 5.223204e+00 5.745238e+00 4.022085e+00 2.679111e+00 4.063187e+00 3.302922e+00 2.337339e+00 2.267302e+00 1.660573e+00 1.054045e+00 8.169186e-01 3.210633e-01 8.707414e-02 -5.425820e-02 -4.756042e-02 1.739111e+01 -1.169923e-01 -1.524591e-02 -2.472490e-03 2.185485e-02 -1.254641e-02 -4.267698e-02 -7.864992e-02 -1.475705e-03 4.594939e-02 -6.075584e-02 -1.247453e-01 -5.738462e-02 -2.460864e-02 -9.723994e-02 -8.494005e-02 -2.842266e-02 -4.711746e-02 -2.307650e-02 -1.343558e-02 -1.665077e-02 -7.320635e-03 -2.685515e-03 2.486890e-03 4.973085e-03 -6.400500e-02 -1.787966e-01 5.025785e-03 8.740712e-02 1.306960e-01 9.939868e-02 -4.375399e-02 -1.240359e-01 4.271053e-02 1.219203e-01 -1.066812e-01 -2.445703e-01 -3.810971e-02 2.929992e-02 -1.463499e-01 -7.139985e-02 3.273635e-02 -3.389028e-02 -3.177117e-02 -1.937288e-02 -3.772181e-02 -7.462243e-03 -1.277162e-03 4.910260e-03 2.329095e-03 -1.071445e-01
<VARIANCE> 75
 2.015851e+00 1.150006e+00 1.792353e+00 2.236144e+00 2.210610e+00 2.034274e+00 2.338781e+00 3.260886e+00 3.878498e+00 2.707712e+00 3.016548e+00 2.888078e+00 2.657626e+00 2.371748e+00 1.787166e+00 1.463064e+00 9.905987e-01 6.184170e-01 3.576973e-01 1.927001e-01 6.421429e-02 9.780405e-03 2.821866e-03 3.471605e-02 5.989321e-01 2.327887e-01 7.287657e-02 1.365544e-01 2.170023e-01 2.104266e-01 2.748721e-01 3.462308e-01 3.786666e-01 4.787749e-01 3.729904e-01 5.074430e-01 3.326342e-01 2.969783e-01 3.207556e-01 2.467870e-01 1.880879e-01 1.290607e-01 7.986186e-02 4.950887e-02 2.723073e-02 8.105606e-03 1.183230e-03 4.448542e-04 4.229852e-03 9.152934e-02 3.526782e-02 1.634816e-02 2.597267e-02 4.361714e-02 4.700302e-02 5.353031e-02 6.443410e-02 8.046436e-02 1.041869e-01 7.186892e-02 8.245645e-02 6.950887e-02 6.762359e-02 5.899013e-02 4.875309e-02 3.808838e-02 2.338957e-02 1.682198e-02 1.026479e-02 4.979184e-03 1.633675e-03 2.365265e-04 7.385267e-05 9.758620e-04 1.133299e-02
<GCONST> -2.984316e+01
<MIXTURE> 15 5.029701e-02
<MEAN> 75
 -1.405631e+01 -8.925933e-01 -5.735130e+00 -3.504901e+00 -2.722972e+00 4.754447e+00 6.168439e+00 1.506471e+00 -2.777471e+00 4.897709e+00 8.350313e+00 1.249337e+00 -1.691309e+00 5.877655e+00 3.406267e+00 -3.399004e-02 2.190198e+00 1.155292e+00 3.466974e-01 1.310509e+00 4.840752e-04 -5.568161e-02 -1.826040e-01 2.439872e-01 1.987594e+01 4.795263e-01 -3.211151e-01 -3.814752e-01 -6.210579e-01 -4.884586e-01 -1.910362e-01 4.981450e-02 -5.050074e-01 -8.310453e-01 -4.098294e-02 4.206499e-01 -3.502474e-01 -5.768129e-01 3.243573e-01 5.232510e-02 -3.218563e-01 1.627397e-02 -4.418961e-02 -8.648680e-02 7.669445e-02 -3.849147e-02 -1.849912e-02 -1.883480e-02 3.688838e-02 2.527854e-01 -2.553128e-01 1.082283e-01 1.418044e-01 2.517136e-01 1.888412e-01 1.090315e-02 -1.132368e-01 1.680901e-01 3.335104e-01 -4.740064e-02 -2.698257e-01 1.118619e-01 2.352075e-01 -1.874313e-01 -6.461845e-02 1.207317e-01 -3.458169e-02 -2.153238e-03 2.310240e-02 -4.816687e-02 1.223138e-02 6.316674e-03 9.537534e-03 -1.501942e-02 -1.473362e-01
<VARIANCE> 75
 1.832688e-01 2.212737e-01 1.859253e-01 2.484502e-01 2.774870e-01 3.596802e-01 3.637632e-01 4.937588e-01 5.709599e-01 4.258171e-01 5.438871e-01 5.267931e-01 6.164644e-01 4.148502e-01 3.243566e-01 3.095860e-01 2.012495e-01 1.104083e-01 8.258627e-02 3.666494e-02 1.371891e-02 1.842710e-03 8.010328e-04 7.580666e-03 1.104650e+00 2.711811e-01 1.416065e-01 1.929094e-01 3.354419e-01 2.642355e-01 1.884072e-01 2.011146e-01 3.379307e-01 5.589621e-01 2.149149e-01 3.596083e-01 2.332916e-01 3.128520e-01 2.380324e-01 1.445794e-01 1.432884e-01 7.625654e-02 4.379353e-02 2.971854e-02 1.626329e-02 5.255539e-03 7.219603e-04 3.857459e-04 2.767152e-03 5.844135e-02 4.565538e-02 2.482511e-02 3.432389e-02 6.455626e-02 4.589967e-02 2.633819e-02 3.090400e-02 4.797200e-02 9.012846e-02 3.301597e-02 6.248710e-02 3.787559e-02 5.329682e-02 3.596345e-02 2.102117e-02 2.136600e-02 1.035690e-02 5.920156e-03 4.697049e-03 2.739435e-03 8.639143e-04 1.186146e-04 6.699422e-05 4.642074e-04 1.168672e-02
<GCONST> -8.680298e+01
<MIXTURE> 16 4.778795e-02
<MEAN> 75
 -1.543515e+01 -4.909829e+00 -4.421940e+00 -1.196945e+00 -2.288945e+00 3.358093e+00 2.612271e+00 2.146736e+00 -5.558806e-01 1.042801e+00 1.128373e+00 2.205265e+00 1.385331e+00 1.060560e+00 1.114434e+00 9.874043e-01 5.326077e-01 5.417614e-01 4.295465e-01 1.447333e-01 -6.928950e-02 -1.840970e-02 -2.808618e-03 2.480073e-02 1.652548e+01 -1.309290e-01 1.158923e-01 -1.666380e-01 7.687742e-02 2.005274e-02 -5.812370e-02 -3.168186e-02 -6.863642e-02 -4.288289e-02 -1.325577e-01 -1.121456e-01 -1.314238e-01 -1.852002e-01 -1.942541e-01 -1.546472e-01 -1.071411e-01 -9.175131e-02 -6.982954e-02 -4.546175e-02 -4.202806e-02 -2.077819e-02 -2.919829e-03 1.787038e-03 -3.799770e-03 -1.466740e-01 -3.079426e-02 -2.042959e-02 1.793667e-02 -5.491563e-02 -1.392131e-02 -2.895818e-02 -5.649501e-03 1.151062e-02 1.324103e-02 -9.751215e-03 -5.270705e-02 -6.287462e-02 -6.917518e-02 -6.945046e-02 -4.089248e-02 -1.992445e-02 -3.467937e-03 -1.290048e-03 -2.912986e-03 -5.394977e-04 1.682441e-03 -7.327871e-04 9.772346e-04 3.204012e-03 -1.294842e-02
<VARIANCE> 75
 6.456719e+00 2.494233e+01 1.622713e+01 1.270446e+01 1.101903e+01 8.219551e+00 8.201892e+00 9.059921e+00 9.769500e+00 9.095943e+00 8.607450e+00 6.894529e+00 5.592719e+00 4.667613e+00 3.528013e+00 2.648408e+00 2.092850e+00 1.365604e+00 7.819143e-01 3.636599e-01 1.310194e-01 2.006515e-02 5.807676e-03 8.324751e-02 1.678742e+00 1.046839e-01 2.362174e-01 2.942411e-01 4.737203e-01 4.178045e-01 5.415777e-01 6.033375e-01 7.040376e-01 6.978671e-01 6.782780e-01 8.349993e-01 6.994654e-01 5.963972e-01 4.983979e-01 3.676555e-01 3.012588e-01 2.179122e-01 1.547325e-01 8.019115e-02 4.045992e-02 1.521271e-02 2.138047e-03 6.947896e-04 8.693161e-03 4.695759e-02 1.205785e-02 2.252246e-02 3.170021e-02 4.989478e-02 6.262074e-02 8.655014e-02 9.335548e-02 1.163236e-01 1.069510e-01 1.043450e-01 1.344707e-01 1.027479e-01 9.564389e-02 7.503021e-02 5.987144e-02 4.982774e-02 3.622812e-02 2.516222e-02 1.346442e-02 6.048601e-03 2.387600e-03 3.462872e-04 1.072374e-04 1.484545e-03 4.718777e-03
<GCONST> 1.526524e+01
<STATE> 3
~s "tiedSP"
<TRANSP> 4
 0.000000e+00 1.000000e+00 0.000000e+00 0.000000e+00
 0.000000e+00 8.787307e-01 1.135122e-01 7.757093e-03
 0.000000e+00 1.265741e-01 8.515699e-01 2.185604e-02
 0.000000e+00 0.000000e+00 0.000000e+00 0.000000e+00
<ENDHMM>
~h "eating"
<BEGINHMM>
<NUMSTATES> 4
<STATE> 2
<NUMMIXES> 16
<MIXTURE> 1 4.743104e-02
<MEAN> 75
 -2.878716e+01 -7.861635e+00 6.871235e+00 -1.765200e+01 8.208180e+00 -2.270847e+00 5.952337e+00 -7.831899e+00 -2.847736e+00 -1.258492e+00 -2.582694e+00 -3.477234e+00 -6.822179e-02 -1.511146e+00 1.278037e+00 5.755239e-01 8.494866e-02 1.349393e+00 4.432851e-01 1.528454e-02 1.487422e-01 -8.664840e-02 -6.487676e-03 -1.553353e-01 2.055592e+01 1.528166e+00 1.054837e+00 -9.859328e-01 2.914461e+00 -1.785480e+00 7.038137e-01 -5.975640e-01 2.239394e+00 4.904353e-01 8.750161e-01 7.093379e-01 1.048390e+00 -7.879055e-02 6.410779e-01 3.767537e-02 3.659405e-01 3.070664e-01 8.457603e-02 7.698099e-02 1.202288e-02 -1.230003e-02 6.224286e-03 6.058292e-03 4.100591e-02 -1.190476e+00 5.344691e-01 4.440724e-01 -6.547974e-01 1.078517e+00 -6.427875e-01 3.229602e-01 -3.166054e-01 7.774290e-01 2.411140e-01 5.071092e-01 3.420874e-01 5.588379e-01 1.596416e-01 2.889870e-01 1.381776e-01 1.591433e-01 1.090798e-01 1.944322e-02 2.118700e-03 1.435138e-02 -3.273089e-03 5.284158e-03 1.190957e-03 1.588533e-02 -5.176855e-01
<VARIANCE> 75
 7.935808e+00 1.255850e+01 1.961372e+01 2.144039e+01 2.966892e+01 3.537007e+01 3.281377e+01 3.487440e+01 2.320804e+01 3.348479e+01 3.059364e+01 2.105388e+01 1.817672e+01 1.413497e+01 1.083983e+01 7.609646e+00 5.817195e+00 3.755343e+00 1.946707e+00 9.160049e-01 2.332344e-01 3.743571e-02 1.385339e-02 1.412402e-01 7.719424e-01 6.009173e-01 1.105748e+00 1.713872e+00 2.419961e+00 2.000336e+00 2.221124e+00 2.237570e+00 2.522493e+00 1.788705e+00 2.200567e+00 2.080600e+00 1.756657e+00 1.338276e+00 1.009647e+00 8.624725e-01 6.665577e-01 4.290532e-01 2.567988e-01 1.517121e-01 7.490022e-02 2.181350e-02 3.217700e-03 1.054758e-03 1.314118e-02 2.019041e-01 1.170195e-01 2.154037e-01 2.394091e-01 5.642267e-01 3.367477e-01 4.712579e-01 3.814487e-01 5.816251e-01 3.133307e-01 3.637044e-01 3.979189e-01 3.368237e-01 2.571098e-01 1.731444e-01 1.534611e-01 1.188738e-01 8.427498e-02 5.258832e-02 2.714271e-02 1.345196e-02 3.660890e-03 5.446163e-04 1.809787e-04 2.332913e-03 5.025014e-02
<GCONST> 9.115469e+01
<MIXTURE> 2 4.365453e-02
<MEAN> 75
 -2.749368e+01 -8.076491e+00 5.883613e+00 -1.735473e+01 7.385749e+00 -2.660675e+00 5.698678e+00 -7.822487e+00 -3.097624e+00 1.554164e-01 -6.250360e-01 -2.217252e+00 -2.930480e-01 -1.175103e+00 1.481545e+00 1.317503e+00 8.289472e-02 1.336986e+00 5.763468e-01 -6.448459e-02 6.561873e-02 -4.558862e-02 -1.792483e-02 -1.806036e-01 1.974664e+01 5.659630e-01 4.948120e-01 -7.127813e-02 1.118183e+00 -6.335682e-01 1.062218e-01 -1.284915e-01 8.335564e-01 7.951011e-02 -7.759002e-02 2.787464e-02 1.619948e-01 -1.222857e-01 1.392882e-01 -5.290414e-02 -1.420379e-03 9.513833e-02 3.378742e-02 3.420145e-02 -1.136172e-02 1.619365e-03 -6.916443e-03 7.157523e-03 1.532592e-02 -2.378401e-01 7.817553e-01 8.646978e-01 -9.797263e-01 1.918833e+00 -9.543371e-01 6.240969e-01 -4.171011e-01 1.369667e+00 5.397419e-01 4.960385e-01 3.317840e-01 6.134082e-01 1.908017e-01 4.024342e-01 1.481224e-01 1.207351e-01 1.836439e-01 2.973851e-02 1.813483e-04 2.896109e-02 2.412332e-03 3.463857e-03 4.043801e-03 2.998489e-02 -7.159650e-01
<VARIANCE> 75
 1.017842e+01 1.453569e+01 2.270776e+01 1.877607e+01 4.204058e+01 4.572831e+01 4.246297e+01 4.273592e+01 3.537746e+01 3.710692e+01 4.043652e+01 2.976510e+01 2.084398e+01 1.626263e+01 1.341016e+01 7.977551e+00 5.213549e+00 3.538798e+00 1.880536e+00 1.017998e+00 3.229235e-01 4.080531e-02 1.508156e-02 1.584520e-01 2.864914e+00 4.155085e-01 6.484914e-01 1.025570e+00 1.481225e+00 1.213804e+00 1.350099e+00 1.701738e+00 2.026278e+00 1.437765e+00 1.593816e+00 1.216464e+00 1.362563e+00 9.742073e-01 6.456001e-01 6.168939e-01 4.057276e-01 2.415009e-01 1.833242e-01 1.028179e-01 5.098049e-02 1.726580e-02 2.610661e-03 5.867193e-04 6.808712e-03 1.192322e-01 2.082671e-01 3.018065e-01 5.131014e-01 5.377342e-01 7.076246e-01 9.229728e-01 7.861880e-01 9.334395e-01 7.180037e-01 7.622260e-01 7.898828e-01 6.258782e-01 4.258093e-01 3.460010e-01 2.903941e-01 1.998954e-01 1.157898e-01 8.151061e-02 3.711675e-02 2.209894e-02 6.733830e-03 9.895782e-04 3.270758e-04 3.543335e-03 6.722385e-02
<GCONST> 9.945767e+01
<MIXTURE> 3 8.247500e-02
<MEAN> 75
 -2.147549e+01 -1.527919e+00 -1.370697e+00 -2.263621e+00 -1.148529e-01 2.433515e+00 2.318226e+00 2.466193e+00 3.513131e-01 3.466363e+00 1.521433e+00 1.881418e+00 8.369427e-01 1.195830e+00 1.972478e+00 1.812548e+00 1.327507e+00 1.271622e+00 5.181704e-01 6.648983e-02 2.393014e-02 -2.063682e-02 1.320023e-02 3.659749e-02 1.467081e+01 6.876075e-01 1.177280e+00 -1.251788e+00 2.277366e+00 -1.060442e+00 6.915138e-01 -5.106624e-01 1.309346e+00 5.431054e-01 -1.745709e-01 5.371039e-01 4.136773e-01 2.472051e-01 3.080491e-01 1.213379e-01 1.454482e-03 1.449675e-01 4.916520e-02 -4.484402e-02 -2.520480e-02 -1.207626e-02 4.973312e-03 5.863281e-03 4.147721e-02 -5.720076e-01 -5.691719e-02 -6.314604e-02 -1.747360e-02 -1.017233e-01 5.210706e-02 3.316366e-03 2.664187e-02 -6.544210e-02 3.239390e-02 1.560810e-02 8.718434e-03 -1.725495e-02 3.284801e-02 3.938958e-02 1.868344e-02 1.473736e-02 4.194592e-03 -9.142810e-03 -4.162335e-03 -1.482254e-03 8.166286e-04 -5.337230e-04 -4.731186e-04 -9.252114e-04 1.323788e-02
<VARIANCE> 75
 1.472852e+00 3.941831e+00 6.012308e+00 7.197874e+00 7.985005e+00 9.054120e+00 9.138710e+00 8.617019e+00 9.497956e+00 8.891223e+00 7.533390e+00 7.024236e+00 5.909945e+00 5.161409e+00 3.787013e+00 2.852203e+00 2.063156e+00 1.457128e+00 7.587045e-01 3.609504e-01 1.263619e-01 2.017937e-02 5.274150e-03 7.034677e-02 6.525294e-01 4.921934e-01 1.005796e+00 1.601297e+00 2.467515e+00 2.482481e+00 3.192675e+00 2.827732e+00 3.105428e+00 2.356192e+00 2.182755e+00 1.795751e+00 2.022813e+00 1.404005e+00 1.322720e+00 7.935464e-01 6.810086e-01 4.030521e-01 2.822078e-01 1.387177e-01 6.379898e-02 2.535613e-02 3.544034e-03 9.421417e-04 1.225639e-02 1.759329e-01 3.528376e-02 9.097824e-02 1.091608e-01 2.384457e-01 1.715975e-01 2.112940e-01 1.919045e-01 2.192894e-01 1.713375e-01 1.819550e-01 1.498017e-01 1.730717e-01 1.250894e-01 1.037352e-01 8.585034e-02 6.113323e-02 4.343066e-02 2.983312e-02 1.561115e-02 7.681831e-03 2.470220e-03 3.352397e-04 1.158932e-04 1.364248e-03 1.291584e-02
<GCONST> 4.796293e+01
<MIXTURE> 4 4.192274e-02
<MEAN> 75
 -2.266376e+01 -6.573787e+00 -5.472523e-01 -7.681078e+00 5.568594e+00 8.821110e+00 1.181897e+00 -4.440048e+00 -1.321184e+00 5.937166e+00 1.912887e+00 2.874730e+00 4.679692e-01 -2.253914e+00 1.489030e+00 2.427110e+00 1.035544e+00 1.522097e+00 5.753154e-01 2.716298e-01 4.273577e-02 2.120547e-02 -1.063137e-02 -7.083318e-02 1.544175e+01 3.042794e-01 6.423753e-01 -4.612585e-01 5.597029e-01 -4.083639e-01 -5.461680e-01 1.803647e-01 3.866123e-01 1.392140e-01 -4.335067e-01 6.515372e-02 3.592498e-02 -1.182435e-01 1.528190e-01 -2.873406e-02 -1.121768e-01 5.339370e-02 4.458395e-02 -1.584901e-02 8.330421e-03 1.543349e-02 7.890367e-03 4.422183e-04 2.016255e-02 -7.728719e-02 6.694225e-02 5.730560e-01 -2.408853e-01 6.296028e-01 -4.706202e-01 -6.179689e-01 1.815832e-01 6.810265e-01 2.837385e-01 -2.053855e-01 2.997657e-02 -1.079571e-01 1.122833e-01 3.942930e-01 8.925627e-02 -1.212541e-02 9.121250e-03 -5.850016e-02 8.707770e-03 -2.319583e-03 1.709584e-03 -2.851692e-03 1.351690e-03 1.169274e-02 -9.689108e-02
<VARIANCE> 75
 4.416324e+00 1.150198e+01 1.936101e+01 2.175108e+01 2.821721e+01 2.319323e+01 2.583566e+01 3.189996e+01 2.571176e+01 2.557993e+01 1.945423e+01 1.902319e+01 1.396075e+01 1.294604e+01 7.735722e+00 6.417248e+00 3.450849e+00 2.579994e+00 1.667654e+00 9.544693e-01 2.493991e-01 2.856818e-02 9.483433e-03 1.230705e-01 7.531670e-01 2.150000e-01 1.250962e+00 9.469437e-01 1.660289e+00 1.394263e+00 1.635777e+00 1.235414e+00 2.399235e+00 1.289424e+00 1.266809e+00 1.190546e+00 1.175145e+00 9.259712e-01 8.536091e-01 6.272938e-01 3.859223e-01 2.672396e-01 2.168055e-01 1.074899e-01 6.022671e-02 1.505450e-02 1.884676e-03 8.346268e-04 8.637759e-03 5.985905e-02 7.524417e-02 2.353863e-01 3.872770e-01 4.055372e-01 4.200664e-01 3.869166e-01 4.676153e-01 6.063055e-01 4.703960e-01 4.566004e-01 3.275257e-01 3.502624e-01 2.677513e-01 2.351513e-01 1.571770e-01 1.228912e-01 7.245868e-02 5.118817e-02 3.123821e-02 1.904555e-02 4.917410e-03 5.252468e-04 2.003941e-04 2.190379e-03 1.567951e-02
<GCONST> 7.633072e+01
<MIXTURE> 5 6.270451e-02
<MEAN> 75
 -2.617286e+01 -7.095619e+00 3.973795e+00 -1.438278e+01 6.934062e+00 -1.457313e+00 4.163309e+00 -6.203929e+00 -2.352834e+00 2.628125e+00 -5.784123e-02 -3.386090e-01 3.119152e-01 -5.260026e-01 1.866342e+00 1.513725e+00 2.075236e-01 1.382332e+00 6.090213e-01 -4.282591e-02 7.217276e-02 -1.639877e-02 -2.470858e-02 -1.348680e-01 1.858221e+01 -8.506428e-01 -1.235156e+00 1.510612e+00 -2.313587e+00 1.152216e+00 -1.070959e+00 4.690214e-01 -1.528462e+00 -7.586986e-01 -3.946872e-01 -4.829158e-01 -6.543247e-01 -4.109764e-01 -3.614334e-01 -1.149497e-01 -1.168784e-01 -1.950320e-01 -1.259388e-02 3.710062e-02 -7.279043e-02 -3.888628e-04 -1.087354e-02 -1.914624e-03 -2.941734e-02 8.638033e-01 4.731774e-01 6.067776e-01 -6.003447e-01 1.210202e+00 -6.383791e-01 3.998475e-01 -1.806482e-01 8.698429e-01 3.044521e-01 1.002744e-01 1.578360e-01 2.557779e-01 8.424605e-02 2.133121e-01 3.389706e-02 4.503869e-02 1.262873e-01 6.856869e-03 4.455121e-03 2.739005e-02 1.683182e-03 5.775309e-04 3.407213e-03 1.648160e-02 -4.039069e-01
<VARIANCE> 75
 8.779464e+00 1.544828e+01 2.689908e+01 2.792201e+01 3.423911e+01 5.262681e+01 4.415141e+01 4.207312e+01 3.207088e+01 4.041901e+01 2.816389e+01 2.795005e+01 2.331679e+01 1.733829e+01 1.365115e+01 8.200366e+00 5.440816e+00 3.931135e+00 1.932183e+00 9.771094e-01 3.555027e-01 4.007800e-02 1.323993e-02 1.296090e-01 3.250391e+00 4.381336e-01 1.003446e+00 1.732059e+00 2.022094e+00 2.148865e+00 2.985732e+00 2.711355e+00 3.100394e+00 2.375999e+00 2.739170e+00 2.047553e+00 1.863352e+00 1.534075e+00 1.304745e+00 1.028790e+00 6.036170e-01 3.806021e-01 3.072172e-01 1.395632e-01 6.730291e-02 2.610097e-02 3.408612e-03 1.102323e-03 1.286334e-02 1.840179e-01 1.524714e-01 2.678221e-01 4.548943e-01 6.392009e-01 5.449397e-01 8.237959e-01 7.386451e-01 7.403743e-01 5.798963e-01 6.885804e-01 4.967454e-01 5.102637e-01 3.834305e-01 3.026950e-01 2.466981e-01 1.614924e-01 9.813906e-02 7.788691e-02 3.720192e-02 1.787500e-02 6.562726e-03 8.634547e-04 2.465108e-04 2.667915e-03 6.633792e-02
<GCONST> 1.073382e+02
<MIXTURE> 6 7.870574e-02
<MEAN> 75
 -2.154509e+01 -5.715852e-01 -3.221280e+00 -8.422781e-01 -4.266618e-01 3.119324e+00 2.246930e+00 2.827319e+00 1.437538e+00 3.364334e+00 2.058752e+00 1.991044e+00 1.465519e+00 1.767287e+00 2.355464e+00 2.286945e+00 1.576612e+00 1.081255e+00 4.666532e-01 1.333221e-01 4.608608e-02 -5.829778e-03 1.277577e-02 5.695521e-02 1.387745e+01 -2.377388e-02 4.906339e-02 -7.436470e-02 -3.533746e-02 1.611781e-01 1.018042e-01 2.905123e-02 -3.749407e-02 2.475569e-02 9.098689e-02 1.823726e-02 -1.909166e-02 -2.427739e-02 -2.377189e-02 -2.007769e-02 -1.543378e-02 -2.781557e-02 -1.064658e-02 1.398333e-02 1.455867e-02 7.319001e-03 3.735737e-03 -2.027958e-03 -1.109503e-02 -3.466588e-03 -5.652743e-02 -8.282531e-02 9.488636e-02 -1.917409e-01 1.078410e-01 -2.998160e-02 3.960871e-02 -6.213962e-02 -5.129560e-02 9.964740e-02 -3.987084e-02 -9.316124e-04 -4.583104e-03 -3.791250e-02 -2.634628e-02 -6.886955e-03 -2.505198e-02 -5.466417e-03 7.247349e-03 2.339464e-04 3.991257e-03 1.325293e-03 5.849543e-04 -3.779106e-03 3.539652e-02
<VARIANCE> 75
 6.059343e-01 1.751044e+00 3.091387e+00 3.100913e+00 4.610279e+00 5.522891e+00 5.708038e+00 6.247319e+00 6.592231e+00 5.838878e+00 5.982015e+00 5.953416e+00 5.534846e+00 4.138834e+00 2.640686e+00 2.707758e+00 1.894035e+00 1.291865e+00 7.144807e-01 3.473319e-01 1.209435e-01 1.794142e-02 5.193961e-03 6.848511e-02 1.306548e-01 1.082411e-01 2.058038e-01 4.357104e-01 6.284475e-01 7.107878e-01 7.814603e-01 6.715688e-01 8.606260e-01 8.758963e-01 9.983141e-01 8.090400e-01 6.666267e-01 6.507724e-01 5.165305e-01 3.924317e-01 3.177212e-01 2.333297e-01 1.388076e-01 9.237088e-02 4.246985e-02 1.549842e-02 2.268794e-03 6.390009e-04 8.855856e-03 1.252420e-02 1.181572e-02 3.012927e-02 5.147802e-02 7.376980e-02 7.531375e-02 1.157350e-01 1.100999e-01 1.204124e-01 1.123863e-01 1.229061e-01 1.037790e-01 9.447524e-02 8.419141e-02 6.525999e-02 5.075347e-02 3.770917e-02 2.970318e-02 2.034065e-02 1.011491e-02 5.119408e-03 1.872931e-03 2.689104e-04 8.742318e-05 1.299076e-03 2.038606e-03
<GCONST> -8.079529e-02
<MIXTURE> 7 7.637900e-02
<MEAN> 75
 -2.309580e+01 -4.639881e+00 1.430964e-01 -8.193286e+00 3.491539e+00 1.406130e+00 2.853419e+00 -2.494645e+00 -1.410361e+00 4.411280e+00 7.351729e-01 1.715735e+00 1.115770e+00 8.263869e-01 2.297225e+00 2.127342e+00 1.241120e+00 1.519609e+00 7.397273e-01 3.035469e-01 7.945068e-02 -9.110238e-03 -9.146854e-03 -9.782319e-02 1.598596e+01 -5.234692e-01 -7.058458e-01 6.593390e-01 -1.244170e+00 5.274996e-01 -5.844342e-01 5.585432e-01 -8.825806e-01 -2.739232e-01 -2.490913e-01 -3.507779e-01 -3.910646e-01 -1.248527e-01 -9.081285e-02 -6.582015e-02 -4.281866e-02 -5.886611e-02 -8.563279e-02 -2.011152e-03 -3.672350e-03 5.898353e-04 -6.815876e-03 -3.880447e-03 -2.059390e-02 4.539852e-01 -1.921069e-01 -1.045320e-01 2.559898e-01 -2.774346e-01 2.079695e-01 -1.734354e-01 1.721539e-01 -1.699329e-01 -1.840468e-02 -2.362099e-01 -1.043513e-01 -2.190894e-01 -9.122536e-02 -9.148777e-02 -4.081903e-02 -9.305380e-02 -5.370671e-02 -3.491717e-02 -2.469112e-02 -1.946460e-02 -1.660279e-04 -2.747386e-03 6.618071e-04 3.055511e-03 1.842011e-01
<VARIANCE> 75
 7.138851e+00 1.282293e+01 2.152412e+01 2.220134e+01 3.257267e+01 3.061664e+01 2.892833e+01 3.587859e+01 2.433156e+01 2.515450e+01 1.945286e+01 1.901477e+01 1.261289e+01 1.233056e+01 8.530411e+00 5.608050e+00 3.743392e+00 2.597967e+00 1.509832e+00 7.529681e-01 2.302114e-01 3.058329e-02 8.620379e-03 1.168160e-01 1.889602e+00 7.138197e-01 1.561593e+00 1.874587e+00 3.425792e+00 2.484323e+00 3.098537e+00 2.543751e+00 3.910379e+00 2.064987e+00 2.435299e+00 1.896111e+00 1.942531e+00 1.284378e+00 1.250969e+00 9.283909e-01 6.594123e-01 4.069049e-01 2.883492e-01 1.588896e-01 7.562177e-02 2.175324e-02 2.947595e-03 9.841871e-04 1.466434e-02 3.346227e-01 1.106179e-01 2.413013e-01 2.733988e-01 4.705293e-01 3.970434e-01 4.701487e-01 4.852622e-01 6.343617e-01 4.198019e-01 4.427159e-01 3.699739e-01 3.740634e-01 2.206512e-01 2.312005e-01 1.516122e-01 1.149947e-01 7.526112e-02 4.699629e-02 3.014058e-02 1.400239e-02 4.463018e-03 5.577220e-04 1.727685e-04 2.437203e-03 4.242763e-02
<GCONST> 9.217815e+01
<MIXTURE> 8 8.506892e-02
<MEAN> 75
 -2.174623e+01 -6.516181e-01 -2.976247e+00 -1.805104e+00 7.562463e-01 3.343364e+00 2.531050e+00 2.893867e+00 1.525228e+00 4.079739e+00 1.979689e+00 2.254926e+00 1.563644e+00 1.481163e+00 2.200072e+00 2.051694e+00 1.226454e+00 1.060996e+00 5.173129e-01 1.841633e-01 7.730658e-02 7.598714e-03 2.984600e-03 4.113807e-02 1.432579e+01 -7.431683e-01 -1.268328e+00 1.257550e+00 -2.505563e+00 1.272252e+00 -4.134508e-01 2.562768e-01 -1.577405e+00 -8.736931e-01 1.424177e-01 -4.913966e-01 -3.392673e-01 -1.951875e-01 -4.806462e-01 -2.370140e-02 1.420565e-02 -1.762052e-01 6.765763e-02 1.720951e-02 -2.186161e-02 -3.097879e-03 -7.472020e-03 -4.778361e-03 -4.610947e-02 5.865382e-01 1.596461e-02 -7.188510e-02 8.353162e-02 -7.165992e-02 2.144834e-02 -5.016357e-02 1.840096e-02 -1.035113e-01 -7.348575e-02 -7.494295e-02 -7.109833e-02 -3.912165e-02 -5.390175e-02 -4.804343e-02 -2.307057e-02 -8.375747e-03 -3.271273e-03 1.397765e-02 8.250204e-03 -2.020272e-03 9.015188e-06 -1.620505e-04 3.446876e-04 -1.758538e-03 3.883655e-02
<VARIANCE> 75
 1.369491e+00 3.157196e+00 4.851502e+00 5.822304e+00 7.187528e+00 7.744321e+00 6.936629e+00 7.737160e+00 8.220480e+00 8.023434e+00 6.859119e+00 6.582129e+00 6.009175e+00 5.128448e+00 3.555638e+00 2.830368e+00 1.975453e+00 1.202959e+00 6.931280e-01 3.516852e-01 1.202627e-01 1.896238e-02 5.567797e-03 6.210647e-02 5.909814e-01 6.625965e-01 1.236815e+00 1.825259e+00 2.547111e+00 2.636962e+00 4.148427e+00 3.076046e+00 3.724194e+00 2.477423e+00 2.860639e+00 2.116268e+00 2.241231e+00 1.800459e+00 1.523079e+00 1.053786e+00 5.430909e-01 4.447773e-01 2.860623e-01 1.612585e-01 8.029763e-02 2.644012e-02 3.272396e-03 1.115570e-03 1.360555e-02 2.223510e-01 3.718067e-02 1.126767e-01 1.294057e-01 2.513900e-01 1.783194e-01 2.153967e-01 2.000036e-01 2.710646e-01 2.049603e-01 1.963845e-01 1.694303e-01 1.457416e-01 1.342456e-01 1.096333e-01 8.222082e-02 5.888889e-02 4.412714e-02 2.914447e-02 1.546604e-02 7.212475e-03 2.678775e-03 4.201065e-04 1.179113e-04 1.390898e-03 1.344635e-02
<GCONST> 5.010534e+01
<MIXTURE> 9 7.827971e-02
<MEAN> 75
 -2.186428e+01 -2.832781e+00 -8.832148e-02 -4.065967e+00 -4.335887e-02 1.109166e+00 2.169684e+00 1.824564e+00 -5.956137e-01 3.203025e+00 1.627333e+00 2.430787e+00 7.749819e-01 1.625223e+00 2.649504e+00 2.292471e+00 1.635396e+00 1.763123e+00 5.445285e-01 8.990806e-02 5.713909e-02 -5.484068e-02 2.283555e-02 7.053453e-02 1.496538e+01 8.808901e-01 9.071156e-01 -1.284266e+00 2.135729e+00 -1.302081e+00 6.285449e-01 -6.900567e-01 1.674619e+00 4.715329e-01 6.265128e-01 6.590513e-01 7.676042e-01 3.770538e-01 5.083525e-01 2.550694e-01 1.434718e-01 2.568567e-01 -2.955786e-03 -4.836862e-02 -7.711903e-03 -4.583220e-03 7.821170e-03 4.729167e-03 4.305013e-02 -9.119586e-01 -4.809831e-01 -4.633261e-01 4.194108e-01 -1.037418e+00 5.749369e-01 -2.836422e-01 3.178183e-01 -7.910318e-01 -1.301963e-01 -2.160439e-01 -2.345318e-01 -3.998951e-01 -4.063413e-02 -1.864878e-01 -1.049683e-01 -9.589317e-02 -1.289558e-01 -6.569712e-02 -5.916439e-03 -6.889583e-03 2.425550e-03 -2.471537e-04 -4.970738e-03 -2.109385e-02 3.768902e-01
<VARIANCE> 75
 2.248035e+00 5.251903e+00 9.126998e+00 9.709017e+00 1.152312e+01 1.372266e+01 1.218556e+01 1.279163e+01 1.241694e+01 1.071817e+01 1.084771e+01 8.406126e+00 8.325283e+00 7.163284e+00 5.220592e+00 3.471666e+00 2.709905e+00 1.836758e+00 1.030848e+00 4.972333e-01 1.721353e-01 2.285769e-02 7.793374e-03 9.717464e-02 8.781106e-01 5.736967e-01 9.032905e-01 1.283844e+00 2.140724e+00 1.922248e+00 2.065031e+00 1.935482e+00 2.657559e+00 1.704510e+00 2.048312e+00 1.744019e+00 1.752053e+00 1.192532e+00 1.036478e+00 8.164018e-01 5.998889e-01 3.798038e-01 2.593787e-01 1.376351e-01 6.693258e-02 2.272986e-02 2.735949e-03 1.011098e-03 1.070391e-02 2.599751e-01 7.862619e-02 1.457298e-01 2.267208e-01 2.902457e-01 3.020243e-01 3.579829e-01 3.795413e-01 4.233847e-01 2.879466e-01 3.354414e-01 2.781406e-01 2.725432e-01 2.057738e-01 1.584439e-01 1.268943e-01 9.948198e-02 6.575597e-02 4.538060e-02 2.374385e-02 1.178398e-02 4.064557e-03 5.606904e-04 1.807675e-04 2.132730e-03 3.377751e-02
<GCONST> 6.604310e+01
<MIXTURE> 10 4.652558e-02
<MEAN> 75
 -2.334735e+01 -4.601186e+00 3.469777e+00 -9.184492e+00 3.349976e+00 -1.011350e+00 4.350131e+00 -1.180364e+00 -1.783579e+00 3.367479e+00 -4.441217e-01 5.234903e-01 3.176920e-02 2.588705e-01 1.225202e+00 1.800714e+00 4.880468e-01 1.083611e+00 7.205899e-01 -2.583976e-02 2.692968e-02 -4.267295e-02 -7.528427e-03 -1.161556e-01 1.734512e+01 1.192611e+00 1.370505e+00 -1.345019e+00 2.953979e+00 -1.709533e+00 9.374999e-01 -7.816480e-01 2.202473e+00 8.631647e-01 5.929329e-01 7.261041e-01 9.934703e-01 3.308935e-01 5.899786e-01 3.195815e-01 2.399317e-01 3.916856e-01 1.228557e-01 2.567649e-02 4.712955e-02 -1.608257e-02 5.673063e-03 1.310250e-02 6.334204e-02 -1.072951e+00 3.319009e-02 1.794958e-01 -3.869818e-01 4.006162e-01 -1.668323e-01 2.663222e-01 -1.707213e-01 2.328165e-01 1.643614e-01 3.164412e-02 1.886369e-01 1.306098e-01 1.467724e-01 1.016019e-01 1.019797e-01 1.699901e-02 5.867233e-02 1.167652e-02 -2.501098e-02 1.180619e-02 2.873736e-03 2.746249e-03 5.679066e-04 1.470905e-02 -1.822316e-01
<VARIANCE> 75
 5.193535e+00 9.628759e+00 1.442419e+01 1.862825e+01 2.440940e+01 2.507826e+01 2.331587e+01 3.064169e+01 2.023433e+01 2.201310e+01 2.009106e+01 1.487529e+01 1.328932e+01 1.096645e+01 9.735962e+00 4.633069e+00 3.555643e+00 2.560000e+00 1.428603e+00 6.803949e-01 2.222075e-01 2.889432e-02 8.721982e-03 1.069697e-01 2.006649e+00 7.027231e-01 1.122628e+00 1.935282e+00 2.654464e+00 2.252934e+00 2.921255e+00 2.935094e+00 3.184371e+00 2.382044e+00 2.793857e+00 2.437391e+00 2.477860e+00 1.727602e+00 1.228150e+00 9.907376e-01 7.962015e-01 4.893344e-01 2.869858e-01 1.658928e-01 8.338150e-02 2.824370e-02 3.528769e-03 9.973176e-04 1.222202e-02 2.631316e-01 9.219103e-02 1.848142e-01 2.370366e-01 4.507584e-01 3.047146e-01 3.745877e-01 3.871485e-01 4.723607e-01 3.939206e-01 3.646542e-01 3.222335e-01 3.195898e-01 2.422992e-01 1.770644e-01 1.611185e-01 8.814882e-02 5.650591e-02 4.333441e-02 2.422726e-02 1.186113e-02 3.829031e-03 5.496513e-04 1.676282e-04 1.991116e-03 3.551846e-02
<GCONST> 8.611228e+01
<MIXTURE> 11 7.336657e-02
<MEAN> 75
 -2.379960e+01 -3.308075e+00 1.161640e+00 -8.111757e+00 3.700807e+00 7.260882e-01 4.200512e+00 1.201415e+00 -1.120625e+00 5.309537e+00 3.411609e-02 1.915914e+00 1.278756e+00 1.107542e+00 1.907351e+00 2.305968e+00 9.240640e-01 1.045226e+00 7.182722e-01 7.885960e-03 8.356927e-02 -2.731280e-02 -2.490859e-03 -1.339372e-01 1.513186e+01 -2.256996e-02 -1.508797e-02 8.171310e-02 -2.227342e-01 2.018756e-01 3.384850e-02 3.542689e-02 -1.559799e-01 -2.171304e-01 5.013370e-03 -9.563643e-02 3.161812e-02 9.903157e-03 -1.144895e-01 1.786250e-02 -2.740898e-03 3.989963e-04 3.054129e-02 5.331095e-03 -1.121331e-02 -2.943329e-03 3.133977e-03 -5.645019e-04 -1.335580e-02 3.558594e-02 2.098922e-01 2.019622e-01 -3.469142e-01 5.823482e-01 -3.529794e-01 1.798869e-01 -1.680743e-01 6.088322e-02 2.164037e-01 -2.458068e-01 1.626065e-01 -4.439457e-02 -4.465374e-02 9.816292e-03 4.164581e-03 -5.532369e-02 4.147081e-02 3.777451e-03 -2.006211e-02 1.252225e-02 -4.891184e-03 1.987533e-03 1.008291e-03 1.761902e-02 -5.363332e-02
<VARIANCE> 75
 3.507344e+00 8.526734e+00 1.204342e+01 1.683496e+01 2.544139e+01 3.141138e+01 1.939779e+01 2.267150e+01 2.191894e+01 2.026289e+01 1.592314e+01 1.378123e+01 1.561264e+01 1.089218e+01 7.376982e+00 4.428795e+00 3.547185e+00 2.410021e+00 1.083138e+00 5.291981e-01 2.289569e-01 3.110069e-02 8.222108e-03 1.045761e-01 6.167511e-01 2.268407e-01 4.342353e-01 7.704959e-01 1.608215e+00 1.236421e+00 1.099113e+00 1.030504e+00 1.054593e+00 1.346233e+00 1.277208e+00 1.014317e+00 8.409577e-01 8.201396e-01 6.254868e-01 4.766166e-01 3.367131e-01 2.617322e-01 1.695940e-01 8.758540e-02 4.728223e-02 1.682616e-02 2.276117e-03 6.547861e-04 8.929971e-03 4.664637e-02 7.009035e-02 1.321124e-01 2.115579e-01 3.897332e-01 4.102271e-01 4.599276e-01 3.612479e-01 3.568327e-01 3.953033e-01 3.678407e-01 2.910821e-01 2.526071e-01 2.744183e-01 1.909368e-01 1.537199e-01 9.465447e-02 7.446761e-02 4.931269e-02 2.320908e-02 1.147999e-02 4.580132e-03 6.036140e-04 1.675740e-04 2.373979e-03 1.254854e-02
<GCONST> 6.245643e+01
<MIXTURE> 12 6.318133e-02
<MEAN> 75
 -2.133038e+01 -2.347275e-01 -3.473841e+00 -7.226452e-01 -4.396406e-01 3.083621e+00 2.380441e+00 3.024569e+00 1.906729e+00 3.483603e+00 2.526098e+00 2.352045e+00 1.565765e+00 1.920563e+00 2.320846e+00 1.964826e+00 1.274777e+00 1.052397e+00 5.742834e-01 2.754986e-01 1.434754e-01 2.924386e-02 4.830005e-03 6.118256e-02 1.404078e+01 1.158943e-02 2.115076e-01 -2.371239e-01 1.877748e-01 -8.225496e-02 -6.229568e-02 -1.809573e-02 1.937045e-01 1.740589e-01 -8.080353e-02 9.347752e-02 8.871010e-02 1.054569e-01 1.364443e-01 8.529730e-02 1.341565e-02 3.075897e-02 1.942396e-02 3.668557e-02 3.463020e-02 3.081825e-03 1.303879e-03 -1.744992e-03 -2.066618e-03 -5.515245e-02 -2.575666e-01 -3.728262e-01 4.933439e-01 -8.008686e-01 4.499301e-01 -7.557827e-02 5.538958e-02 -3.943390e-01 -3.018132e-01 1.288755e-01 -2.475097e-01 -4.801496e-02 -3.573109e-02 -1.393978e-01 -4.098459e-02 5.292631e-02 -1.474414e-02 3.118970e-02 1.956476e-02 -1.390848e-02 -3.254806e-03 -4.142116e-03 -1.345005e-03 -1.770566e-02 1.504398e-01
<VARIANCE> 75
 8.498605e-01 1.922828e+00 3.071367e+00 3.001383e+00 4.504382e+00 4.483222e+00 5.059566e+00 5.377622e+00 6.041047e+00 5.753856e+00 5.283195e+00 5.230004e+00 5.394585e+00 5.095906e+00 3.696897e+00 2.570383e+00 1.777769e+00 1.102317e+00 7.195616e-01 3.726370e-01 1.196289e-01 1.534858e-02 5.020829e-03 6.826224e-02 2.506718e-01 2.525234e-01 5.800968e-01 8.796554e-01 1.537061e+00 1.262877e+00 1.371209e+00 1.044200e+00 1.095625e+00 1.281856e+00 9.776494e-01 9.045312e-01 7.958137e-01 7.253866e-01 7.084973e-01 4.362315e-01 3.613443e-01 2.594190e-01 1.678684e-01 9.860250e-02 4.787141e-02 1.511187e-02 2.422755e-03 7.310174e-04 8.756608e-03 5.629858e-02 3.633232e-02 8.745883e-02 1.341146e-01 1.612927e-01 2.273852e-01 3.340943e-01 2.438765e-01 2.498474e-01 2.367804e-01 2.213634e-01 2.069897e-01 1.760069e-01 1.795155e-01 1.523498e-01 1.118767e-01 7.048114e-02 4.714087e-02 3.152063e-02 2.136537e-02 9.744118e-03 3.195629e-03 4.115457e-04 1.239794e-04 1.632585e-03 9.136915e-03
<GCONST> 2.759413e+01
<MIXTURE> 13 4.441991e-02
<MEAN> 75
 -2.938528e+01 -7.312049e+00 6.023243e+00 -1.782411e+01 8.815328e+00 -2.059765e+00 5.378867e+00 -7.921154e+00 -2.789452e+00 -6.302056e-01 -1.866374e+00 -1.893938e+00 8.233151e-01 -1.347898e+00 1.994193e+00 5.102928e-01 -2.404133e-01 1.497588e+00 1.828080e-01 1.555876e-01 1.697344e-01 -7.234573e-02 -1.801599e-02 -1.469696e-01 2.048563e+01 -1.884323e+00 -1.833359e+00 2.315721e+00 -3.881926e+00 1.868944e+00 -1.149832e+00 7.830953e-01 -2.767028e+00 -1.069581e+00 -1.571092e+00 -9.556223e-01 -1.466277e+00 -2.741537e-01 -7.053134e-01 -3.118343e-01 -3.562741e-01 -3.129657e-01 -5.298618e-02 -3.469885e-02 -4.288922e-02 4.513863e-03 -1.998663e-02 -6.734506e-03 -5.311473e-02 1.661325e+00 6.252385e-01 4.260480e-01 -5.174758e-01 1.109616e+00 -6.396101e-01 3.362731e-01 -2.091203e-01 7.063364e-01 2.066456e-01 3.275591e-01 2.500662e-01 3.128249e-01 -4.430169e-02 1.842514e-01 1.636685e-02 1.176228e-01 1.168675e-01 2.232967e-02 3.789548e-02 -4.661591e-04 3.013027e-03 6.058646e-03 1.758765e-03 1.262304e-02 -4.512277e-01
<VARIANCE> 75
 1.085894e+01 1.996175e+01 1.581026e+01 2.592106e+01 3.484070e+01 3.320741e+01 3.371974e+01 4.050903e+01 3.051771e+01 4.072330e+01 3.267727e+01 2.661139e+01 1.784444e+01 1.489138e+01 1.192451e+01 7.536268e+00 5.191540e+00 3.768590e+00 1.551696e+00 9.126295e-01 2.632927e-01 3.427536e-02 1.221391e-02 1.665589e-01 1.216795e+00 6.304837e-01 1.370925e+00 1.534299e+00 2.114120e+00 2.380872e+00 2.726758e+00 2.329950e+00 3.162249e+00 2.171981e+00 2.574623e+00 2.363945e+00 1.728949e+00 1.438119e+00 1.297198e+00 9.220402e-01 6.469035e-01 4.397950e-01 3.384345e-01 1.490541e-01 7.851867e-02 2.290678e-02 3.433330e-03 1.124513e-03 1.446016e-02 1.503256e-01 2.574948e-01 3.902765e-01 2.981935e-01 8.773999e-01 5.441853e-01 3.987191e-01 4.156706e-01 9.635409e-01 4.587014e-01 6.258518e-01 4.268138e-01 4.195221e-01 2.605598e-01 2.217033e-01 1.675903e-01 1.233987e-01 7.287023e-02 5.715253e-02 2.316241e-02 1.611462e-02 4.149273e-03 5.518980e-04 1.921455e-04 2.685355e-03 8.707102e-02
<GCONST> 1.004456e+02
<MIXTURE> 14 6.172492e-02
<MEAN> 75
 -2.634094e+01 -7.556080e+00 4.384224e+00 -1.535242e+01 6.017685e+00 -3.114183e+00 5.741258e+00 -7.651663e+00 -2.480533e+00 8.967454e-01 -1.828178e+00 -1.646259e+00 3.637740e-01 1.304176e-01 2.134966e+00 1.330240e+00 4.730949e-01 1.279995e+00 5.162826e-01 1.494225e-01 1.519309e-01 -7.305868e-02 -2.458250e-02 -1.688699e-01 1.855731e+01 3.058450e-02 -1.557291e-01 2.382381e-01 -5.383523e-02 -1.420383e-01 -1.265047e-01 2.160362e-01 -4.303484e-02 2.202502e-02 -2.334354e-01 -7.331774e-02 -2.966150e-01 -1.501396e-01 -1.255119e-01 -1.694765e-01 1.049611e-02 -3.665071e-02 4.334970e-03 2.900733e-02 4.483502e-03 -8.967802e-03 -1.043801e-03 5.705366e-04 -4.041204e-03 8.584963e-02 3.492505e-01 4.775955e-01 -4.476412e-01 9.769397e-01 -4.463522e-01 4.397417e-01 -3.066379e-01 8.099212e-01 1.953771e-01 1.989271e-01 3.391027e-01 3.239163e-01 8.915841e-02 9.642732e-02 1.409738e-02 4.589146e-02 8.332157e-02 8.699430e-03 5.067373e-03 -9.054007e-03 -1.502751e-02 6.117579e-03 3.052691e-03 1.401161e-02 -3.220558e-01
<VARIANCE> 75
 1.081286e+01 1.328206e+01 2.523921e+01 2.756897e+01 4.279794e+01 3.337239e+01 4.958796e+01 4.206533e+01 3.152436e+01 3.665823e+01 2.386913e+01 3.180301e+01 2.426144e+01 1.757303e+01 1.159726e+01 9.222201e+00 5.475294e+00 4.085920e+00 2.163442e+00 9.160388e-01 3.285490e-01 3.469722e-02 1.212919e-02 1.581901e-01 2.734177e+00 3.039915e-01 5.777606e-01 7.454166e-01 1.256474e+00 8.689514e-01 1.314579e+00 1.732213e+00 1.862051e+00 1.282295e+00 1.280826e+00 1.166610e+00 1.092104e+00 8.416686e-01 6.779066e-01 5.137309e-01 3.328163e-01 2.213212e-01 1.645082e-01 1.078195e-01 4.790441e-02 1.711044e-02 1.755563e-03 7.024982e-04 9.219222e-03 1.018605e-01 1.552872e-01 3.047862e-01 4.209763e-01 7.163224e-01 5.972599e-01 6.366282e-01 8.603649e-01 8.036698e-01 5.791839e-01 6.481637e-01 4.576977e-01 5.795389e-01 4.009174e-01 3.301391e-01 2.262663e-01 1.804605e-01 1.108489e-01 7.468893e-02 4.491515e-02 1.744851e-02 6.976326e-03 7.188453e-04 2.590617e-04 3.377000e-03 6.382628e-02
<GCONST> 9.346469e+01
<MIXTURE> 15 6.322822e-02
<MEAN> 75
 -2.172500e+01 -1.704115e+00 -1.625548e+00 -2.743308e+00 -1.751595e-01 2.030722e+00 2.191703e+00 2.549582e+00 2.418579e-01 3.463341e+00 1.298364e+00 1.861808e+00 1.188400e+00 1.365524e+00 2.294432e+00 2.082976e+00 1.452848e+00 1.219496e+00 3.253496e-01 -5.637848e-02 -5.430655e-02 -5.558454e-02 2.706485e-02 4.827543e-02 1.424481e+01 -7.396719e-02 9.826540e-03 -4.198058e-02 -1.469888e-01 4.713152e-02 6.407774e-02 1.310270e-01 2.695253e-02 8.161576e-02 1.211743e-01 -2.567605e-02 -1.595088e-01 -3.927886e-02 -6.818379e-02 -1.048952e-01 -7.853303e-02 -6.887098e-02 -6.306526e-02 -5.229104e-02 -3.389108e-02 -1.385295e-02 6.395826e-04 -2.001427e-03 -7.073448e-03 -3.100985e-02 -2.597751e-01 -3.652520e-01 4.049261e-01 -7.695802e-01 3.429347e-01 -2.465567e-01 2.448380e-01 -4.907730e-01 -1.181894e-01 -6.930266e-03 -1.542760e-01 -1.592883e-01 -7.743177e-02 -5.896166e-02 -7.193453e-02 1.097674e-03 -7.663359e-02 -1.028674e-02 3.339836e-02 6.404941e-03 1.316794e-02 3.101451e-03 -4.356063e-03 -1.866240e-02 2.622528e-01
<VARIANCE> 75
 1.456055e+00 4.623116e+00 6.051721e+00 7.014750e+00 1.112211e+01 1.107502e+01 8.971281e+00 1.065798e+01 1.060685e+01 1.057207e+01 8.601260e+00 8.961555e+00 7.580950e+00 5.930394e+00 4.406892e+00 3.190641e+00 2.433002e+00 1.621840e+00 8.117856e-01 4.239435e-01 1.257516e-01 1.935330e-02 6.618727e-03 8.090678e-02 2.572879e-01 1.423175e-01 3.332073e-01 5.803964e-01 1.161929e+00 9.348674e-01 1.179841e+00 9.718469e-01 1.122439e+00 1.026658e+00 1.097438e+00 8.967980e-01 7.972732e-01 7.777591e-01 5.217726e-01 4.039947e-01 3.291435e-01 2.422240e-01 1.562786e-01 8.851240e-02 4.728407e-02 1.487707e-02 2.130423e-03 6.587902e-04 8.783794e-03 5.423347e-02 4.774801e-02 8.715934e-02 1.644736e-01 2.227215e-01 2.416514e-01 3.128092e-01 2.529750e-01 3.258139e-01 2.745012e-01 3.322183e-01 2.303556e-01 2.256494e-01 2.191803e-01 1.389386e-01 1.058273e-01 8.291573e-02 6.023248e-02 4.037450e-02 1.770489e-02 1.009372e-02 3.228448e-03 3.977488e-04 1.316110e-04 1.902604e-03 1.909391e-02
<GCONST> 3.848509e+01
<MIXTURE> 16 5.092293e-02
<MEAN> 75
 -2.542220e+01 -6.709782e+00 5.086996e+00 -1.234005e+01 4.038658e+00 -1.992085e+00 5.073829e+00 -4.527405e+00 -1.665030e+00 1.211642e+00 -3.279266e-01 -2.569379e-01 1.171706e-01 1.019965e+00 1.514251e+00 1.769699e+00 8.294488e-01 1.111453e+00 8.501296e-01 1.757408e-01 4.108218e-02 -4.776493e-02 -1.798489e-02 -6.693873e-02 1.788846e+01 9.354036e-01 6.096780e-01 -8.595873e-01 1.755287e+00 -1.337525e+00 4.872824e-01 -4.507903e-01 1.517942e+00 2.332299e-01 6.409639e-01 2.272433e-01 5.598091e-01 1.607774e-01 3.267838e-01 5.357124e-02 2.508938e-01 1.489570e-01 7.695457e-03 -1.560025e-03 -1.595231e-02 -2.826638e-02 1.192189e-03 7.503110e-03 1.400168e-02 -7.730619e-01 5.282554e-03 7.812519e-02 -1.949260e-01 1.087121e-01 1.218353e-02 1.358781e-01 -5.379692e-02 4.425867e-02 -1.368208e-02 6.226177e-03 -3.775625e-02 1.948724e-02 2.288176e-02 -7.890163e-02 2.350671e-02 -7.571084e-02 -2.608669e-02 5.570089e-03 -5.021580e-02 -1.898038e-02 3.952628e-03 -7.180677e-04 9.371003e-04 1.219640e-03 -1.957477e-02
<VARIANCE> 75
 7.306237e+00 9.953745e+00 1.938641e+01 2.291481e+01 3.236646e+01 2.351236e+01 3.365636e+01 3.463238e+01 1.891864e+01 3.118705e+01 2.116176e+01 1.959218e+01 1.713067e+01 1.513926e+01 9.165476e+00 7.951650e+00 4.489804e+00 3.467302e+00 1.576344e+00 7.380733e-01 2.616510e-01 3.371197e-02 1.013857e-02 1.371981e-01 2.268054e+00 4.491658e-01 9.700507e-01 1.464566e+00 1.870244e+00 1.756903e+00 2.144023e+00 2.218159e+00 2.675265e+00 1.721775e+00 2.371967e+00 1.842668e+00 1.695838e+00 1.373204e+00 1.225037e+00 8.597063e-01 7.042588e-01 4.107998e-01 2.698141e-01 1.370884e-01 7.203019e-02 2.313873e-02 2.835954e-03 9.192062e-04 1.179939e-02 1.938066e-01 9.290110e-02 1.941738e-01 3.092190e-01 4.293413e-01 3.883760e-01 4.083932e-01 4.689047e-01 4.952836e-01 3.445641e-01 5.044796e-01 3.961391e-01 3.614561e-01 2.621858e-01 2.263579e-01 1.604778e-01 1.495598e-01 8.300547e-02 5.686582e-02 3.210614e-02 1.558134e-02 4.781442e-03 6.587168e-04 1.798257e-04 2.322945e-03 4.252113e-02
<GCONST> 8.985418e+01
<STATE> 3
~s "tiedSP"
<TRANSP> 4
 0.000000e+00 1.000000e+00 0.000000e+00 0.000000e+00
 0.000000e+00 8.845943e-01 8.383783e-02 3.156786e-02
 0.000000e+00 4.320679e-01 5.149567e-01 5.297545e-02
 0.000000e+00 0.000000e+00 0.000000e+00 0.000000e+00
<ENDHMM>
